[[0.024304569923195123,0.16158596624327323,-0.00783529194595246,-0.20638753966695686,-0.21180242673192287,-0.2036979453364978,-0.23192862332841244,-0.13145155289035326,0.03237915854378169,-0.127753778133505,-0.12180695919006593,-0.2105352838942888,-0.16888158498419986,0.20333496015592029,-0.04306755177588025,0.2071121020129514,-0.245517056767566,0.054447322308160746,0.2474002356508103,0.18852342144699538,-0.2096132765097189,0.07874049053497106,0.2085856786874686,-0.10512253798585225,-0.16917092114428373,-0.08811907689558174,0.13137583957326504,0.059872951681699246,0.21323733977944323,0.22660766516709954,-0.17437823079053227,-0.10295395876286538,0.23136262721132222,-0.15711728426294608,0.1703628696127484,0.20532069823717808,-0.22811615405045343,0.0038984119558138105,-0.1504356522725756,0.16697661539124256,-0.07676027737158647,-0.032659510415005207,-0.09596461796801806,0.16402827689443544,0.2301132348995521,0.09513067349242144,-0.14727177655231305,-0.1668425559372961,0.09169946523696385,0.025388498027334356,0.15960312140088054,0.19459576861057862,0.18561061270393775,0.21145459833094052,0.20035923125318109,0.1018550349810109,-0.17298785147320253,-0.10660600977638378,-0.23952466084450189,-0.11898997676380998,-0.021486120685185215,0.13947776708335805,-0.05313615769856869,-0.12685359928373247,-0.0165859758355662,-0.2078329340362816,-0.042526247832395316,-0.19796723361425111,-0.2104893414818659,0.16125382533222796,-0.035629759178359956,0.0660728299079101,-0.17797065358466438,-0.16363062664023753,0.09729721136805371,-0.15314518187974446,0.09193097174853326,-0.1301014674470424,0.17728041664738348,0.17209081720998706,0.041260804622833866,-0.16211661527770413,0.0005607267203787766,0.0781223797030058,-0.1677101646053562,0.2400546682808009,-0.23543592933661367,0.2200762104460681,-0.07138129641208385,0.06317425652759312,-0.17737067259581119,0.22137360887255686,-0.021098640795682334,-0.1961599997811302,0.22519153624629468,-0.22841227123380659,-0.22402641435515458,0.23722047060298299,0.0787808880604067,0.1858730345126306,-0.06376016590677701,-0.23375935302043074,-0.2155678079832663,0.16769038312238538,-0.12676573563039667,-0.08738787057443653,-0.12353682186980533,0.23220091072029567,-0.23644099612994923,-0.024466440746851784,0.11094376702944779,0.14769498144857227,-0.19253109778526475,-0.11297601526452118,0.0075878084236177265,0.08575838894905305,0.19832967840660262,-0.23738568822486822,0.03671167444506525,0.015823688288266587,0.24141186936916406,-0.15756625895732485,0.24348045251563083,-0.0837807406842805,0.05416335679545727,0.23376418321710984,0.17580294997213344,-0.10564433494184029],[0.15438419289034944,0.10992876948757369,-0.3723492940528842,0.5076714831150627,0.04740438137914289,-0.12195245914928939,-0.2640396429553387,-0.031738192495709444,0.043194431181894255,-0.33037829524451195,0.17757480968745465,0.568732661810472,-0.009348400651684696,-0.2408936124944813,-0.07221666309797539,0.08393870118713549,-0.17383273959740933,0.22043211069542773,0.06983417098918503,-0.07523198352661233,-0.1428926655877387,0.26518028913439806,0.5787090204042797,-0.1545972942311013,0.21043197356403628,-0.30076597329429927,-0.42981683887721905,0.0031574837464446886,0.3009384768810913,0.2159170151971498,-0.23563052267887757,-0.03401256768567021,0.14540804220125336,-0.33737737976407717,0.3180685148574414,0.04506342982239513,0.15548894500534902,0.3208946883269435,-0.22695629240621462,-0.3056056067475349,0.17671051582031905,0.2633300277650384,0.3769059426521635,0.26604998420708476,0.136325213892467,-0.428202037608465,0.33406847885359037,-0.07302095471599568,0.17343019389685932,0.2042346070551321,0.3206705821289546,-0.16272316709469956,0.2599896415857277,-0.2671109711874595,0.10037175610091587,0.14912965124360514,0.40283871425598455,0.14977100299088072,0.26734246326315636,-0.16994316437806303,-0.1491638095670779,0.31083178751852153,0.06214594840865264,-0.15276755625673935,0.06140165735295011,0.4581842113307911,-0.022131642511584473,-0.3132314466920866,0.25716210608791495,0.3850378458253173,0.3812974262386596,0.1786005090636241,0.015534868194707346,0.27827966485073136,0.2627024294930931,0.34629129558065624,-0.3929172242712253,0.37237918279977117,-0.09188791891154914,-0.5109220973690334,0.190285333728484,0.12606934230877206,0.4794625740256217,-0.20185558706104917,0.250030715288202,0.21355859074306835,0.42135278261339737,-0.011811196883513368,0.17462533185415025,0.06380264887857039,0.43375985542609635,0.01800452730310496,-0.07318526009785004,-0.006871711749104699,0.3305071180943962,0.2303273638720871,0.17804853652981728,-0.0015693546406104547,-0.07751601962306622,0.20072241375375216,0.3012447463614134,0.1727454187528003,0.31509057279819197,0.36685846237840936,-0.05879307860294116,-0.5369474165554805,0.2820020197291686,0.10065989212704177,0.040079077592791425,0.28469601683450807,0.06089740498422836,0.45562762151401504,0.2988260055474429,0.003456972525564662,0.10808579448496004,0.22856149318219676,0.3895867809864835,-0.18533156586877578,-0.29412482502732973,0.17316351694313814,0.12307519851694887,-0.16486806318589947,0.05929185919478308,-0.25694462274027835,0.32782586894104265,0.20211581153958016,0.14641663721621295,-0.21329049358654584],[-0.6089278766281452,-0.34029617158955083,-0.6050816227571029,-0.7220922547790963,-0.635021940916026,-0.613366599521172,-1.022531312555725,-1.1244450924761513,-0.9483580611138389,-1.0283407105630318]]
