[[[0.24541036188276144,-0.046115457821475525,0.04786801647379113,-0.11339105920317705,0.1330288707827162,-0.22528126526375836,0.19679922900926228,-0.12035997723668823,-0.04170728939792023,-0.038461967244216244,-0.07269654512092405,0.180995936071066,0.17293538872606296,0.10702226751356447,-0.15705083267825048,0.21981742462157983,-0.2254169686833256,0.1732916917280931,-0.007134815569612152,-0.1399585835839322,0.01518534212115652,0.14882924864833202,0.03896205686757204,-0.02073924741122557,0.13775379212588823,-0.1966383660433788,0.12587935422806762,-0.040583688742552027,0.1084467239687642,0.16071308007518037,0.18605033926669812,-0.2000336003000387,0.13846075539274305,0.06781122036880782,-0.03294622630535249,0.0036515256380403242,-0.2434331878491739,-0.11287708473758934,-0.21024332760164366,-0.13700796816216892,0.09607303963536579,0.21128256857960598,0.06411118106756132,0.13080106141063966,0.129916531564316,-0.12127533742375494,0.16952933867736922,0.12062812850823601,-0.21083089732243418,-0.20418907731459823,-0.05192724474117605,0.11382304326477022,0.18445003064571663,-0.0908200615749386,0.19451561113964766,0.21588679324433435,0.015007349357090582,0.19906196296231116,0.15494678473751222,0.009424071392760225,0.01887308112009171,-0.04111406776644866,0.23200635433372593,0.006840234201963138,-0.17261835844931117,-0.3231799031785116,-0.06330631611750229,-0.1822563240305721,0.21908812607972608,0.032966371431482795,-0.09624712469220978,0.11645059251553452,-0.24675639014053094,-0.08025529643850696,0.09463563472991875,0.09299613909897872,0.2033859760912535,-0.23975326665309785,0.0015462895260271378,0.10063031559895544,0.06199464701809608,0.11621187469601486,0.07982108185977954,0.09208981612975198,-0.011149496376030577,-0.13953906719436682,-0.004714891471926608,-0.06345307207535104,0.024635176765398233,-0.20123321094010302,-0.13515655864790938,0.1633165647482876,-0.04649937748584433,0.19016971812119934,-0.027360421548099638,0.2627551225430806,0.2261158224828125,0.3356835665826388,0.26963556961991453,-0.00023215824720761014,0.07450768814374543,0.19540727479636963,0.2185030565228636,-0.14733883515261706,0.04231952713158337,0.276247236482992,-0.17544279136558172,-0.026153449696354032,-0.21013667061753455,0.13438976453348012,-0.19904685993503496,0.15283316932175972,-0.1381764455962715,-0.04991176318319879,-0.1779692480777103,0.02552913490469788,-0.24408142524327014,0.21855064312269112,0.24400532635930422,0.009182148926793633,-0.19341956325084173,0.08320057118238346,0.0674940041946279,0.3589161363968793,0.08238586248354263,0.25244190726271293,0.23258438170675888,0.1418728079290478,0.49269136839250244,0.3325744154470015,0.19771015115813367,-0.09777451745647646,-0.24076219790994685,-0.06719197289029051,-0.18293774939405638,-0.13978150041901571,-0.028560732126567293,-0.18280657507249146,0.012285996355454359,0.12877001715528813,-0.05971913626884273,0.20746799063199817,-0.0032601382102561693,-0.02008611666082439,-0.22776130837229538,0.22703417673270151,0.035805273785427014,-0.085277960079207,0.3452756512968461,0.17102394819730263,0.6184711899871471,0.5683536704659434,0.40474757087438473,-0.051777693653271215,-0.06735780303818849,0.18869909018723335,0.607230730013248,0.42010295316684954,0.11519899325512604,-0.22205147186923355,-0.3463691702785217,0.20547089159617388,-0.005967222529488502,0.07594442190589648,-0.26077308989131753,0.01597984422092895,0.04990849834729061,0.24060957364263713,-0.24692354341181466,-0.24308359782216393,0.20261768400438077,0.05963382876933395,0.12271798696990528,0.021390123472174137,0.06617164554603099,-0.12932947274232526,-0.061183294386409875,0.6128615459508613,0.4080463624531707,0.06719088738509285,-0.1308721615204162,-0.09011960343531439,0.11268979862057274,0.18521776180503172,0.3752552590156467,0.45569302760709196,0.19478496863205494,-0.1930480870762964,-0.5364773928097851,-0.2621365971022157,-0.3403184197590211,-0.26165898134585563,-0.100366820163499,-0.14043740755389386,-0.08355786698405529,-0.10583402377568807,0.23800575125879742,-0.24047958711258963,-0.021692176124673515,0.1400649019571997,0.16437730804794543,-0.3484452271777232,-0.15858351523384284,-0.13716223740603778,-0.13741588563942062,0.12990804494459693,-0.3203925374062082,-0.03307316163958893,-0.09792256453284294,0.4399873605432803,0.30780401090766374,0.2435844642081564,-0.040785747748133774,0.0511469141205286,-0.2959218309490368,0.0028930816804589865,-0.46160556890743315,-0.5134992377318688,-0.8039350635193623,-1.0150548142367324,-0.5106493357600934,-0.4135953552798844,0.0684161771227476,-0.1559414998387965,-0.0709136256553573,0.16546501839689556,0.13738646088082626,-0.2679363366605097,-0.12125005741303482,-0.26054415568062467,-0.2005421790234276,-0.4332690567064095,0.09234434974669964,-0.3308679951209758,0.0696819954973115,-0.42942484186965957,0.032399564630067434,0.09838362023009999,-0.5366988480579581,-0.54639113115949,-0.7390426331818726,-0.9523695612421051,-0.8045870145970115,-1.0330649269910555,-1.1256256841979542,-1.1092909929992316,-1.6533704246566892,-1.6411996473989148,-1.2672687021400795,-0.5188159963756929,0.01476341020395648,-0.24723607587042906,0.2365960180031519,0.020109123873481915,0.19521196558855095,-0.2312179916285093,-0.24365635888447423,-0.3071534768798636,-0.17002393907227714,0.09357749801935966,-0.17267187943740336,-0.2938952026194353,-0.080613510122835,-0.501795409554182,-0.4360642113021278,-0.6964289724861759,-0.9572700594266226,-1.3191341600946234,-1.0701378990440191,-1.3505993560729324,-1.294165865262496,-1.2376706489233462,-1.212422141174392,-1.242542769488335,-1.3014235472194198,-1.1656014937853714,-0.8992408386579765,-0.7262665944758111,0.24381105795654817,-0.03205857580087317,0.029012031734608933,0.11199208533272788,-0.016200909526657977,-0.09615233905246484,0.15588580851294648,0.007956984983421386,-0.26913883035728536,0.10225755763637534,-0.1779530520886622,-0.16585449124119964,-0.1029354884022479,-0.4384750647619551,-0.953108643628832,-1.0480381393595024,-1.4790634353217211,-1.0090017568621454,-0.9691369651356099,-0.631842859748299,-1.144852861939886,-1.2714483943855093,-0.5796655011718146,-0.38395970117106115,-0.6649416113465889,-0.6493587655125511,-0.4099367347012284,-0.37099991837684154,0.07950504293194416,0.03317751973470024,0.19168775434134316,0.06668912269088953,0.21773965018244304,0.14313040748884928,-0.05878406682747878,-0.19765686332308488,0.07023548151029513,0.08826962256692346,0.005701065424817731,-0.38884124675798865,0.20071764283611873,-0.9414990966110799,-1.167981353521491,-0.858482858851969,-0.4812384453615808,-0.6836411144775545,-0.3613973888028217,-0.5169089070546414,-0.3240571457032784,-0.14191471189827803,-0.19090832327982227,-0.05696569332042122,0.24516398462962993,-0.3882346587642915,-0.33598886063383887,-0.20223571283085537,-0.03808073983729351,-0.030938197439356625,0.20084982761388703,0.1461801147339708,0.002987030004528793,-0.1592487390949771,0.08802797007087255,-0.04501956351696084,-0.2570247749050799,-0.05016197478148453,-0.40248868436972957,-0.3838723623708408,-0.6281829696499353,-1.1093183226804855,-0.620623284293633,-0.4690562524307159,-0.198677143899944,-0.6204789552348916,0.06128437726183447,0.18534597636648742,0.4720017409094569,0.3533319849425549,0.20284306961076104,0.48464391798166556,0.04476348845637452,-0.15503384732275866,-0.40515690683743577,-0.10481587967880615,0.03775715253583174,0.022285088210722073,0.21491348199520244,-0.2024000591493142,-0.06636338901919094,-0.02245864589663174,0.001960398508031528,-0.0823626467016134,-0.07662180128481919,-0.3597694973022646,-0.392383029359605,-0.6081826243561818,-0.6083097692125036,-0.8605985428210369,-0.7446491461896838,-0.9719649196208122,-0.6782522482916948,-0.27221362721772996,-0.018242233897720575,0.5379989610831614,0.5791283789859859,0.4635390468274695,0.06829129135545534,0.3401498081751108,0.2240646964286511,0.040688245896329855,-0.16205418473136535,0.2937892486345497,0.034313072489337945,0.056789211640511934,0.1855397120458061,0.11556297371949298,0.2409138710346421,-0.04610327820222555,0.182255992659766,-0.5016697171046823,-0.4257105269788569,-0.1261104964727927,-0.2589477717116552,-0.8417012143861801,-0.44277364965362154,-0.2411690026459869,-0.6057138934767463,-0.8385145120173269,-0.8289203911730717,-0.2763924336367129,-0.023691777163075703,-0.0675937514189219,-0.09601696239223724,0.38307016900099944,0.381132701935036,0.33299559224317005,-0.02968240117188262,0.11961263500006182,-0.4356155143650696,0.10737746066041726,-0.03633550027057451,-0.1915146796680636,-0.15588228389603132,-0.1856160133110275,0.19961720493982596,0.09557090971120313,0.13239980676881105,0.03734981582023415,-0.030008483531558418,0.09329788960150948,0.19784644032280008,-0.1187883290105077,-0.58506094637533,-0.4539184187104938,-0.19419534148690668,-0.42031630113087676,-0.4297376183431194,-0.07535550393856726,-0.3017576349108447,-0.106624934990862,-0.08754412245534182,0.3207462490699178,0.2008338345645906,0.2165217458963655,0.22308000029680988,-0.05035859008870822,-0.0523444396388905,0.28473240803120864,-0.08747902052745835,-0.19025440773936553,-0.07194559269807954,-0.20435602291662813,-0.10397300325731795,0.13546370781036127,0.13822550330881903,-0.1689561380610859,-0.6115495213586605,-0.24794955555681014,0.09788952901987168,0.30797323712450336,-0.01854895410967374,-0.04679324337538261,-0.5421990879380756,-0.40538547967206673,0.02125170861057321,0.3932800183854005,-0.4100375709603786,-0.32221737842037174,0.33303780352294016,0.30765585723653244,0.22668569292469357,0.36437064540506114,-0.06132298034094119,0.191004812570542,-0.1919722299908813,0.22362285563957782,0.10269260532040567,0.022624425766330822,-0.1673672173854135,-0.15304544183901903,-0.14120348317944034,-0.08198964086705428,0.004199390689429396,-0.29516648471021817,-0.4424590266589459,-0.5953564319254294,-0.2665868221615554,0.2535615776017161,0.6237606176366921,0.20575165967218756,-0.360460419162725,-0.6120351129439895,-0.354126706404579,-0.18515319817067485,-0.22151799678967324,-0.09253256990623265,0.4196610904773825,0.42579342472889375,-0.002966503993649644,0.0831911598252563,-0.0991053615582446,-0.018695372261586123,0.10045575412882997,0.09069629092374393,-0.13262080879527946,0.12129169394626996,-0.22919072843410615,0.21074738338323684,-0.09321777575595772,-0.08600218064504475,-0.19248909304727796,-0.4627071277039259,-0.5334393216780835,-0.5142132516987602,-0.8239107344909286,-0.5083213647388347,-0.7594358313871821,-0.35060754032254854,-0.6349957552756731,-0.9471112588764095,-1.0432154884411913,-0.4096311076252228,-0.08983711992200519,-0.20645246515554844,-0.25026992716840957,0.02709717105817877,0.012698149172237327,0.25380121248387666,0.06688499583445266,0.3006625609885587,0.3236418816170357,0.14955871791471667,0.16465531062143085,0.16778648619520045,0.039143476549036604,0.17973229985316275,0.2545352539228105,0.012016526102364923,-0.19396297825766493,-0.06836036901910722,-0.19243958685350085,-0.48736154404136084,-0.5069810511188537,-0.9765042287690279,-1.037149294576524,-0.7815398168333076,-0.9678928570476565,-1.419741585699069,-1.017240923451995,-0.1648230172804941,0.02919977783091475,-0.06076489796073595,-0.10847147465683439,-0.24593352587877187,0.05455360325719649,0.0481335574936706,-0.10951500236065632,0.31064828404418526,0.2502935488090514,0.16910525706714957,-0.11529642306323008,0.10609201103286363,0.08617188626278327,0.010281182604184202,0.034746047783156396,-0.34571477531773787,-0.11936001296788197,-0.24222360922049468,-0.23826170495050825,0.01447083436827344,-1.0081127133739287,-1.1248787550272166,-1.0260283579090952,-1.2695710934909958,-1.1588244328616395,-1.5507500235129086,-1.149251894863752,-0.5336005182824538,-0.2646482293488325,-0.05652564773730352,-0.031060539000337437,0.09079930784489576,-0.18755596812674658,-0.12838093953014315,0.06453112035895861,0.1933965416878661,0.18944542605939507,-0.13315622563970553,-0.20834347549622,-0.06648210020689915,-0.08347749049648678,0.10921357557406675,-0.1021253319031705,-0.03638784113725486,0.15049538700244033,-0.07624000793502664,-0.32030682463556287,-0.061289836955845764,-0.5128942212939471,-0.5526988087778422,-0.6661757445095347,-1.1856980987831336,-1.2362268306805302,-0.6494846832211066,-0.31331449906414227,0.09549730549542368,0.12304920185803128,-0.16288839009213388,-0.22289446401019747,-0.22440277166154413,0.039804067732540506,0.01804225111930927,0.3519998376961679,0.2433251248677916,-0.10348390579756439,0.1807542724779488,-0.10720928177493383,-0.1825154593415642,0.24856767543223746,-0.2459088638849951,0.06683336708275728,-0.11868799733462095,0.12014376208899151,0.12698138384945504,-0.10475868025233746,0.14920740362593687,-0.36084277379820334,-0.4602621913308391,-0.16080342137029077,-0.42206401140410643,-0.058756764856705834,0.020215705713132276,-0.12479190947194038,0.4719276296824392,0.19672744924798655,-0.3783528234469728,0.21075341482100735,-0.050868625665633445,-0.1755396973786646,0.1411185196777884,0.13714210525765078,0.23928042475873465,0.08321243769445676,-0.034149353501952695,0.2148273049494618,-0.09597982148464124,-0.21737100473314797,0.14837667848694336,0.006368717191524867,0.017955983790478625,0.2092857479328621,-0.17920118355591125,-0.04201302955366708,0.39974015317548384,0.06291247832079377,0.021858872824375427,-0.21768130966071822,0.231854432531015,0.02116456194526256,0.09574158306613623,0.2771453095141383,0.32637961262218584,-0.2521505045937704,0.20190582585805592,0.16563054415884265,0.1168619364536523,0.27893529669927464,0.2995034585894165,0.17130190692186775,-0.11519556216793332,0.1431811568257044,0.21417799450166608,-0.15342694314299457,0.08983996164654728,-0.06224125701180094,0.01058377528279475,-0.09327002115214178,0.11145492851207386,0.22047148588437357,0.0839558530748725,0.10395974132309191,-0.025352228933574587,-0.037431823473369014,0.17929204014760952,0.19055024280190894,-0.10633860438731668,0.082759956888942,-0.023102975997583482,0.1404068363897499,-0.016327964099040575,0.263645927421877,-0.0009481582120913247,0.2993623849968861,0.006842990771267644,0.28171704290305233,-0.02720041830773008,0.16014748441952434,-0.0501295254795114,-0.24120443107229797,0.09800772411454793,0.14662047955817784,0.015178203345002639,-0.14387896784875787,0.17303564609793332,0.23174453350117563,-0.007402985944771774,0.049763996043371346,-0.10861690762710066,0.25201999784060525,-0.279114960177275,0.1305458452451837,-0.2516019090695822,-0.18963254016671435,0.15122394036221076,0.00942866587372309,-0.019876483314499326,-0.1062648298686872,0.19792161319421414,0.010587778914438947,-0.160216538332974,-0.13911573662783347,0.11062234093363923,0.1757901296251042,0.11521991888741775,0.0534949956094446,0.010994864919469098,-0.13630262731195752,-0.03973396405716867,0.18238025663158952,-0.06204576255107086,-0.2110480855529614,-0.16711244878201503,0.20914094582725973,-0.19820546603267988,-0.23690647851898783,0.2085629737883735,0.2038882768961907,0.08735990196820279,-0.1824417970738922,0.03924671924855906,0.05308528553851842,0.04617604857388358,-0.22194919624277828,0.12877993004789687,-0.1172363035002804,-0.20122395389856762,-0.24682664430920057,-0.09114432712095742,-0.20986545686794142,-0.15887155667072314,0.2312279688146738,0.0901734921202578,0.12687760140772575,0.218950240309061,0.14810490497230577,-0.22595457930409624,0.05805464697458573,0.18440862363467614,0.14461991420116815,0.1437555472321328,0.06333152297628453,-0.09111051431734885,-0.048870110928829424,-0.13272404399318383,-0.2144725377607329,0.24710949129877366,-0.07426008648323106,0.030373425126920945,0.12257877023746806,-0.13864256245415083,0.1573397757606923,0.08100133081287975,-0.2304617115422614,-0.24560384205212238,-0.13398419181426507,0.07431375191594668,-0.2010303525809178,0.03930713191561071,0.056199733621702844,-0.16207318616443842,0.23289705974256866,-0.10883202718622544,0.050000676623811136,-0.11391588569482802,0.12819576952454992,-0.04647696478573604],[-0.19794746041566813,0.2282618596910274,0.06348486593332558,0.06679314152025195,0.04064360784525134,0.23750476897809136,0.08238820905897504,0.2311737923670899,-0.20421431702224058,-0.05832615423587739,0.20543286867580723,0.168099246246311,-0.21987109251271775,-0.07108095220678701,-0.1831645092914802,0.07035934125188181,-0.18233092766999748,0.09869010470393302,0.16143967270406134,-0.05407768386031098,0.20753177177365723,0.09264994444846686,0.1385533520643749,0.19173476372508225,0.11788824771129014,0.05056481239748478,-0.016882757915201996,0.17087824497653548,-0.21224882000915968,0.16155994465121337,-0.0977939041199869,-0.13459803808682924,-0.025947331378854854,0.13179090829346038,-0.017896316139236434,-0.17919942866674038,-0.4260878405865432,-0.0874950455697136,0.03000852484140268,-0.21680215167918093,-0.13908527133171025,0.17083135368446392,0.237330279996467,0.06253833492906351,0.21770724716696194,0.013243656148750569,-0.004168535945524313,-0.15085296687039762,-0.08387250923610005,-0.10647487335690067,-0.1548844717052738,0.249592632745015,0.16819263096944514,0.10518471059647116,0.23127136139248672,0.22550968471281352,0.19042610479001776,0.15190493311088515,-0.22289942918560846,0.06942733462870321,-0.03172780534548958,-0.12100109278845367,-0.10244033010080691,0.011027006465388206,-0.22421761073253438,0.034943155647568065,-0.08981410669908173,-0.0666449588161039,0.13224877095898238,0.07455475514863542,-0.3395603346661541,-0.3140909270103945,-0.3021436302887559,-0.060555369726288694,0.2509728208660575,0.14931643264736463,-0.10901755886020158,0.13288142951202556,-0.28196543743396746,0.23072346892958318,0.1900255260102163,-0.0787861362131923,0.2190691397515936,-0.2118044672400411,0.050959138593188236,-0.15018858143303504,-0.013182353138731397,0.08127873397965166,0.14628954309142536,-0.06787776552583853,0.2099901937711761,-0.22350242502765386,-0.5117797665178663,-0.26591542607076146,-0.11177135185108952,0.0986674875522338,-0.3097205897223221,-0.2699409071228254,-0.5583556052985467,-0.6870525499620115,-0.6487938295064873,-0.7374210512600854,-0.5819504133531099,-0.4723735226795967,-0.022473712321205187,-0.3256648781225784,-0.2223138692492552,-0.19225669172575052,-0.22058249571043112,-0.024913716995748382,0.20358691094907597,0.18798562773985916,0.03879253339672539,-0.05905247773019373,0.048887575832439294,-0.11903791667715707,-0.20359724924832542,-0.021087524655642193,-0.4640744916136797,-0.6965536800073546,-0.7270996933694622,-0.7334335888971699,-0.5729531462651714,-0.8538782382116143,-0.6008057427552893,-0.821038963583583,-0.2616179653435849,0.10690302469623279,-0.47194648170215486,-0.50018520188577,-0.592193121940761,-0.9591274394458378,-1.0393630197841857,-0.6007699736228558,-0.6321100708443954,-0.2573572114867376,-0.18353833773492387,0.08805960051935448,0.0007008262221496252,-0.11553913125255587,0.0441953734230659,-0.24388552798172458,-0.20052040928014403,-0.09774240885693297,0.023170781513522823,-0.40954041384899537,-0.14025937534830019,-0.3409311128229787,-0.44870600454141346,-0.9374413185784922,-1.3230067532847911,-1.6423291646583213,-1.3056248014441385,-0.45309272090965247,-0.32587320951460624,-1.3083096783256987,-1.7377045648628533,-0.6518280133031454,-0.08607919093601074,-0.00012109304413822479,-0.6962164956934036,-1.5472051835736909,-1.024644216157936,-0.5821368992059152,-0.5489573268794743,-0.27464204553338556,0.12922949441373338,-0.09307129937779832,-0.11874962914072429,0.10522619787294518,-0.23112666637673998,0.2983332893273403,0.30627842839690567,-0.44755347479927965,-0.368332859764492,-0.7038681071600714,-0.37759145722692944,-0.7203821311874858,-1.1751174359256387,-1.0127969619012487,-0.6147552010352597,1.2401673883781499,0.8068378281160505,-0.4120692401928025,-0.33800037996182464,0.22744768665340662,0.2970953492718238,-0.8847934970224132,-2.0106800904579365,-1.5162881696641748,-1.8537114021091412,-1.7030406882627225,-0.9410551181838338,-0.23690555030994973,-0.009516542100336534,-0.22075082244059116,-0.17112968331754685,-0.05909080758872748,-0.10860602589966274,0.31825363521416405,0.16686492960387558,-0.2151482447455271,-0.3947680747323956,-0.42965817400485085,-0.9034480792146793,-0.9022636072482078,-0.8832456413924972,-0.3849908581611921,1.8038318625567018,2.274958669046686,3.206783403063347,2.3429898585398443,1.2938824976162773,0.5224218162071141,0.589658345399291,0.18279869452204237,-1.9682770977268345,-2.249482879603698,-2.3467162595424282,-1.889417960696253,-0.659260398804626,-0.3368537055905879,0.27207613266767194,0.07333014311533725,0.08827334590949644,-0.23678292523167946,0.06903337574374148,-0.11489896363432152,0.40793641014436705,0.008953285247988798,0.05151097160925678,-0.3263478626701577,-0.7437855610280524,-1.2927975101510438,-1.626851487290624,-0.7142217372656496,1.4937554278353902,2.2000269020656344,2.137667599964382,0.8801270873889236,1.4036654484706796,0.23645197614457678,0.7288548802391832,-0.01296128212296113,-1.846512451659006,-2.635042304716842,-2.009467510783615,-1.284124995335609,-0.4729516588520355,0.007359405512724591,0.27676161436978863,0.06629710154355528,-0.10599732095412233,-0.04246925748525695,0.11197420540802747,-0.04086506792436251,0.4581931070507348,0.3838745703872361,0.30164306777893196,-0.13854645649404448,-1.0329734263684258,-1.4266753213377998,-1.4872137444954323,-0.7904963936426973,1.1831094229590113,1.502450042497029,0.4447909617848102,-0.2782461753275001,-0.6005865166311642,0.390103801955602,0.9435130012116136,0.40586585026775984,-1.8806699117713628,-1.4257687712038536,-1.8774499100405582,-1.5335550765282142,-0.8353358343873072,-0.19908846351634985,0.11057385057700912,-0.15874235158617847,0.1954873251201557,0.05320259750226752,0.2490958806919688,0.2893033691261823,0.4187967280411726,0.3379063359008496,0.22000742268360793,-0.40948874791928913,-1.046613600897471,-2.1368232923787174,-1.8519941503114619,-1.2809256262377184,0.06645868374440346,0.07085172567702788,-0.3942349830238547,-0.3505119144562487,-0.14308322242590318,0.5710066340040074,1.2284042396040624,0.5171541603194619,-1.5455043807485596,-0.7989762417661291,-1.5891706520331503,-1.4794521994155254,-0.7542421858128053,-0.6691655701896649,-0.3447642943168491,0.16815138873952368,-0.048190491432924,0.20126418172009244,0.12683303456755637,0.11363728628444812,0.24779059310887253,0.2726241482312027,0.23536996848336666,-0.5478681341884077,-2.0407883555670967,-1.9419479960214407,-1.477200588951995,-1.5789527857703256,-0.9969115673287204,-1.2141562281210294,-0.685914776633168,-0.23527923135600085,0.39701449321703675,0.7944229294883925,1.2059948516708296,0.3746066250053953,-0.5662763399561896,-0.7805532799456818,-1.2409319127064948,-0.8145575826243434,-0.8167305625768291,-0.36055391557047284,-0.24521360624547833,0.12012312641299605,-0.016675960445528992,0.24828991044895402,-0.11015384740892932,-0.20548711178807458,0.10440446533675828,-0.04868374853465167,0.23890011345909906,-0.7339223741712061,-2.0931097252306388,-1.4156000588716693,-2.4522980469597977,-2.1557917679844736,-0.9679264358902956,-0.7376871496296209,0.10933766336011921,-0.45194008199854174,-0.7480042923225585,-0.09338575187166417,0.2609087070235045,-0.6181083260185228,-0.9608488438902941,-0.9601787636205272,-0.9829843203537478,-0.6965352348400378,-0.09982099937482812,-0.023351725813023427,-0.08153640956654565,-0.02190245752129458,0.17788141701763405,-0.1399636575807825,0.10557863316763665,-0.0031129259184013267,0.28797352704972035,0.10364227140205334,-0.3005113499501396,-0.8295336883452828,-1.28348737292297,-0.968823474638858,-2.0055294898135907,-1.0983293656044941,-0.5939833192421269,-0.6010134799744842,-0.3508157827788936,-1.3272618980508575,-0.7402091919464691,-0.6864839546328292,-0.4054364448235573,-0.8114786626349276,-1.8004733137458488,-1.5274924433401962,-1.1199058022394153,-0.718145086104938,-0.03501306559389977,0.06129232127431962,-0.033812120351075045,-0.15237205406804455,0.19379267951474077,0.1799362932547407,-0.1679682919078132,0.04790459976372889,0.08128856136845294,-0.13502128655388426,-0.0901365812921028,-0.7699298421823378,0.03921583360234001,-0.7853233242400308,-1.5621292342816635,-1.1685040250463465,-0.8202116575869584,0.25531636127886054,-0.4364889116438145,-0.2862233458254059,-1.3160717102702923,-0.12426891215389799,-0.4418076634833039,-0.6251944781173618,-1.146661613040404,-1.2339872896469506,-0.7950328002892315,-0.5372834349431893,-0.3505006865527036,-0.053289173103274454,0.11736909781017842,0.0670173294712027,0.15918241691720925,-0.2024793970586567,0.20005942301590265,0.17114223655427493,0.04482663050672358,-0.5814848485201596,-0.16292424291671645,-0.05648445879915992,0.015500651448984472,0.2927571480318342,0.059880036758232925,-0.39888911684013684,0.5793445129779751,0.609960444679912,0.11793150341729638,-0.6898082197988239,-0.2930497478834957,-0.2955399978275084,0.5030570287259746,-0.7100524195915331,-1.0030534448654143,-1.1783139696043208,-0.38603358789770803,-0.2581490425466317,-0.07040651393978181,-0.09531141293018112,0.18997319372443067,-0.006514474620154972,-0.15436341883087068,0.07334857662702578,-0.24028742324194619,-0.08415832481294996,-0.19411201122774402,-0.315964253418424,-0.12106599976026092,-0.6511087787070073,0.16230760964246105,0.44029624267401557,0.21264572013629676,-0.27148637072575904,-0.3761211608187594,-0.1779872327770796,-0.14555548279348102,-0.7145729725359653,-1.0879901015560391,-0.4261448061060804,0.3848899908566045,-0.30733707192441123,-0.8999577520933547,-0.418875156157362,-0.6628108502131367,-0.08069317060402427,0.15021910116775866,0.3180752745732308,0.14816353365884086,0.17359761531333423,0.14081309070382564,-0.01133260703529159,-0.21597637772048703,0.07905421979614129,-0.08689186154465496,-0.909095015089755,-0.8973487643088454,-0.5751623746907907,-0.4839106533237981,-0.487257368441389,-0.49070062917905827,-0.34222659225426005,-0.5173080082873596,-0.471527217464398,-0.6751347363150652,-1.272523475084502,-1.2129522322309785,-0.33456025101761927,0.7939603358008072,-0.588773151688348,-0.8432805823806966,-0.08848076060532993,-0.7126543251968573,-0.083516708881811,0.43832811519818693,0.16813414455321632,0.0019742090620408098,0.11811760503519815,0.10239930630185826,0.025495167620826865,0.10400081413531974,-0.4259569633860693,-0.5026186437017494,-1.2748389035048648,-1.9340789003032213,-1.804582019559468,-0.9910786545092514,-1.1770462744680656,-0.6699728647749437,-1.1098651890663411,-1.950083288042322,-2.0555570208606784,-1.2289515465084841,-1.6839199964889193,-1.9583732492764656,0.4168198984064431,0.9980438940877265,-0.3968275809622304,-0.7417689197100987,-0.1712900966908337,-0.41155137982143075,-0.3143614913804989,0.21097681859682665,0.031000238537225503,-0.12184548458820493,0.15414109716146376,0.19898726113451773,-0.10038342449139916,-0.01734871273347246,0.051134878505667704,-0.45485182056498463,-1.28872472881401,-2.5124403286212775,-1.9488504306253032,-2.10204140919078,-1.5391423091165732,-2.0220796337490925,-2.0959971972968177,-3.4796744892810163,-2.847016697203256,-3.7789182613491397,-3.3704035985207845,-2.0147843798928684,0.440326929205474,0.4339418695948722,0.01226938779532686,-0.7646588846547899,-0.9495494053348604,-0.48924665608897683,-0.3661310524589092,0.002170632233180193,0.05393394703981766,0.14897641575123022,0.1056605518975118,-0.2276949499065427,0.011150393636577894,0.20860212481235418,-0.20510713659749077,-0.11721113213154298,-0.8760019268852629,-2.0816783281324747,-2.3579435075907305,-2.1924566865704804,-2.477866790634202,-2.5890346467632837,-2.3827617787830895,-4.160668650904231,-3.2310101966944944,-3.4660546492215585,-3.2538452043770123,-2.082294854262513,-0.4987264278302437,-0.014453738714512571,-0.1136109665403962,-0.904343840265623,-0.5680983401008971,-0.7474291897780379,-0.9042005510013398,-0.3441086325448598,-0.11745005381523287,-0.03906377928490614,-0.12259023799786195,0.015357177359467178,0.19803822867297238,-0.14118641847711672,-0.47515117192591333,-0.47358476458621307,-0.32132209784722415,-1.7198540897172312,-1.8859697884722249,-1.393194056518182,-1.7693769193553643,-2.095464317846898,-2.287955586245832,-2.7814099063459308,-1.4657349915952391,-1.258758836863209,-1.4449408247949396,-1.4742862485418764,-0.8738533153616562,0.5556709231960233,0.09165318283540842,-0.09183389852070688,-0.6259298558542475,-0.8475421579856107,-0.6489272981130911,-0.29947510355164353,0.24223346047672054,0.1206695347977023,-0.16800354159868303,0.23244758745436278,0.13615275065018695,-0.30572151114849483,-0.3933656100247665,-0.2907309419614816,0.00011972525148101271,-0.4531960576026479,-0.5748777877499639,-0.8187927522020836,-0.7993016462761318,-0.8094015212909291,-1.2126939608496252,-1.6698753517405587,-1.3503780364883846,-0.05512049106613199,-0.6405526331511747,-0.5879495422742257,0.09200617130432812,0.8781010077757687,0.2755566483270724,-0.8655861809856495,-0.8189360888937438,-0.4523164261966676,-0.49404785980214677,-0.5045134385112388,-0.0037086610331862504,-0.061641982725006664,-0.19519507685652826,-0.2029319171581654,-0.09653608256032609,0.23933453251822967,-0.014669962705576411,-0.4087641364599428,-0.014055767734015744,0.09410130875018126,0.20604492503071536,-0.9074245456130602,-0.8273980045527212,-0.09101953931754406,-0.05211528071925197,0.0336869614236382,0.5814280125214537,-0.01485576321665663,-1.7078234380561752,-0.2509023424336347,0.7475355266800356,1.1324247345865548,0.5870319474729222,-0.5189366833599446,-0.5363159255394596,-0.28092632887430014,-0.49796899350507684,-0.6578799960859916,0.03888748616820162,0.10748489319093633,-0.09664252899553138,0.004316656790140594,0.09061452067222076,-0.03879448986965376,-0.22891653296607395,-0.05648625046542571,0.040071910207630616,0.1684927508026161,0.00440504303613491,-0.004003727115757444,0.5037410436046486,1.1706772080393317,1.1661440005168835,1.2314805922171679,0.7563516108300516,0.4041603446410965,-1.0346145841253138,-0.6580758271486774,1.322836850728952,1.3934414798213621,0.8754015677804374,0.17737260577403385,0.07516747758600316,0.16290537724054172,-0.012176481901513363,-0.09864533332061763,-0.11082815809292529,-0.008870344476685922,0.0590171595167448,-0.023369874507658595,0.0015908728667699545,-0.13103748318853697,-0.022780045830745967,0.2730753561270732,-0.08022649804006372,0.04360383513646126,0.21011020244419382,0.5835859070116969,1.0225618383372654,0.11234377754261644,0.12796772138166543,0.1249547153075648,0.8803052118202531,0.7964514440096202,0.5890166965206277,0.7293918684034145,1.4310023505427838,1.5901380703300676,0.6778308101867758,0.18605933655805082,-0.2535456028330518,0.17514787484156769,0.06958371676772278,-0.08085566828152609,-0.005243637543370987,-0.19803664301208546,-0.18374363935317428,0.04931388103900536,-0.17540880318530327,0.2184741685241438,-0.07571783270311117,0.09199898983436262,-0.048165479925773295,0.13910477487250217,0.18496589768678137,0.49180868742240846,0.1553763246209566,-0.29558780169404,0.022684543415621712,0.06786220986486732,0.22926544862525933,0.019347538492909513,-0.016826869640039946,0.22416943497548894,0.7323026352016351,0.6932862963082135,0.17471799138749491,0.08134886581576994,0.3075348397427246,0.024936069098986244,0.019135736359004465,-0.10690800989135174,0.17565494719773056,0.07216210392475908,-0.20036397025544528,0.011825396583099113,0.1638645707884041,0.04879682070189406,-0.1389790503795244,0.03239197673397243,0.1715852915297108,0.055772289831949616,-0.24281861854215442,-0.04356910253959118,-0.24648858186650494,-0.11781048198001381,0.20834047637366618,-0.22835173952288654,-0.23452753682496974,-0.0008983905404387663,-0.11008297148475361,-0.12180949798942413,-0.10701740053593783,-0.013076347322218719,-0.09335378969496987,0.013106846293862624,-0.07353711931452574,0.15105988169339,-0.13482381947390298,0.008467343630657598,-0.13757076690896575,-0.023039890000502217,-0.1150590161100089],[-0.1014960116787621,-0.05820754655286242,0.1416185439375357,-0.24599268083893433,-0.07946606774989506,-0.0028512375798595,0.0013710654837409963,0.06435247482595408,0.19894288610770305,0.21358178007692452,-0.009905371250247264,-0.18488224063145575,0.02950047436770098,0.23097701930917736,-0.22394016663044392,-0.10542609145271808,0.23433510601969698,-0.07045645125419842,0.15020229689333475,-0.24112554930521102,0.24250597978765043,0.0689791655057077,-0.07107984905837395,0.02869024651073504,0.20252562747376923,-0.04189300454507294,-0.1634360175974776,-0.05795746190747619,0.1145517799667316,-0.21480072780088344,-0.011106620787090793,0.09061668957373403,0.19878592486726698,-0.07538729801703292,0.22099775703164384,0.05189448885496202,-0.09194905471398922,0.20015546416433366,0.20570980374189568,0.102042884550508,-0.16505405955197336,0.13779896412060014,0.04445090444229916,-0.018342744810333277,-0.25824264996897417,0.1925561279622383,0.019542949139095968,0.17339677108373172,0.06054306189858966,-0.011984993723299824,0.1864765187149788,0.16045918803079107,0.14183949068065804,-0.00692090978892157,0.15687771996630273,-0.15575858289353628,-0.049723474635374854,-0.01895528274908631,0.1201940582357125,0.08551832655703615,0.018041438104976566,-0.24796251139553202,-0.0503895985682865,-0.1400073794374577,0.14176744182456086,0.3424830449776746,0.12375229177484612,0.004030446797320149,0.3479095514137687,0.6582886640270901,0.7135627774748957,0.11247406911388344,0.7999478714448721,0.27651233547389653,0.23919223494440048,0.40456266037967953,0.05808937277461386,-0.16560246918064717,0.06979131348985249,-0.16484733428958104,-0.1036126346549351,0.13318905367115685,-0.03648998697934003,-0.11092373237901909,-0.2179054482744175,-0.20059542030495547,0.15966642094696826,-0.07061444319307139,-0.16271710658447558,-0.08664084384486172,-0.1070230054605465,0.5239585989092418,0.6042324362049414,0.8834507489146063,0.34545059628392216,0.5085141152993677,0.8112144071294949,1.4592157480003147,2.424410094195898,2.6882046858916295,2.753561573127908,2.1763288883650307,1.430549628524351,1.5291965605126459,0.8752639063223495,0.3607217187186097,0.3483068838964092,0.22751729608002624,0.029523495017953642,0.16683115912166668,-0.18559159066185515,0.13436818614383716,0.05415745091092117,0.21130589844054382,0.12928320556843212,0.19868110060059424,0.062204618885266384,0.027893424231978152,0.1825419279836732,0.21525332397997626,0.14512481075001002,0.3700128761450605,1.31495078376817,0.8175876458763333,-0.4526562573280853,0.0801684194857265,1.650108522521621,1.816412455671879,2.7989469257133384,2.80769641432611,2.680050361084795,2.9631110534362004,1.9300442947881933,1.5094965552852793,1.0922698726478457,0.31360211759646855,0.13761516309067046,-0.44527539142531614,0.08804421742382282,-0.2094844206126684,-0.05008418296522932,0.1146643628196038,0.09346275862893383,0.15042613901908317,0.3116612954612908,-0.11903142641061079,0.30557423042691945,1.0201683492868932,2.30409288785968,2.9148300677545347,2.5886710456920072,1.8711672913360708,1.0862116872847483,1.8420784044265623,2.145270532290861,1.8225706017055532,3.492660479635662,3.8019537090725337,4.403077824570889,4.116473484860769,1.8951046646119873,0.3238401904029553,-0.582590672734907,-1.674494818000491,-0.9631092049761643,-0.41949062795493813,-0.13682922984346488,0.13989582932269817,-0.14299133112650986,0.11775835163685522,-0.01710007834587006,0.07809175468796968,0.7621970940414329,-0.10711714029570778,-0.2037489498573947,0.8333140962766525,3.0122227874673175,2.8679262090187425,2.7800203306750517,3.1609572761877365,2.7683542475658496,-1.1281260991922266,-2.7251927061588983,-1.089029971957478,-0.1237846108166114,1.3396712388224317,2.381502007284734,0.3989287379314103,0.538749854375986,-2.293362338562665,-1.4984129859217854,-2.061298277744172,-2.2588880685640187,-1.7832889487781691,-0.20226901138546807,0.23029863256263217,0.19914113960528346,-0.05106883549890258,0.0691230659377335,0.3646801284381442,0.8380239755353182,-0.03910308493913655,-0.9077939962909917,0.30733786307336547,0.26433490026188144,0.6444439916094366,-0.05380114332071259,-0.9031300461333815,0.031241619506728522,-1.049178887224891,-2.4172918247327515,-5.341760971609119,-5.44528231921314,-1.7239565668078403,-1.01600452686538,-2.880987854717747,-3.9608904311142115,-3.915450337032071,-4.802971859231131,-4.422764137853922,-3.138293931890093,-1.8124491246754677,-0.16700420504544516,-0.15850125183276864,0.1179180464544581,0.007209520292237148,-0.12042029313737043,0.06331438540420693,0.5313769605797128,-0.36876634265490654,-1.851177722616925,-1.6268580765632314,-1.264755250050484,-1.6728667549440066,-1.8066601905380737,-2.7437042697147835,2.169720974466981,-0.4461800658960163,-4.452388687129533,-7.200380496641683,-7.730316939133594,-5.747207224250909,-4.741364570282923,-4.331593307118269,-4.427947883018448,-3.244473735984092,-3.4379624935552213,-2.966546554976816,-2.2575045098141664,-0.5110207849344715,-0.1646050558213128,0.25715647055384555,0.21841034270698667,0.05532462978477162,0.24231598267507726,0.26484519276534113,0.7290640008395691,-0.1277861964574805,0.06561792257646358,-1.3517537907147488,-1.7953558825091014,-2.3362917114795967,-0.7147911981012797,0.5221030774781369,3.3004516835745217,-1.4541347786295329,-5.338902165563895,-6.480254607566026,-7.730671629676586,-5.598730934424838,-3.876650459785061,-2.8136463495311776,-2.236726837347841,-1.2218771614092976,-1.7826801291653354,-3.100741995503954,-2.5440925251356052,-1.8637906208318966,-0.053782697906469105,0.08457450231623302,0.18050628154953205,0.14034192452696145,0.25717755245866974,0.5093785373945109,0.3243647013439019,1.20773204173759,0.19388040764439812,-0.6148292089338419,-2.8138043832631205,-1.7761126506935145,-0.052192819805459346,2.660015329049691,-0.5049562164484984,-3.7051027197167445,-6.512689831731061,-4.749517000888957,-4.607745086740787,-4.584120191423917,-1.727983605964612,0.4173554336026582,-1.5470727832644273,-1.7717278398645933,-2.2671906797711867,-3.1426677283933486,-2.0020450795325564,-1.4556077792164674,-0.10242166737992964,-0.04704231491645196,0.18524979149628895,0.010174224602748508,-0.0009754301724399502,0.0867466594810069,0.49440958420246645,1.5636752618400767,2.129688359958188,1.1885534396038002,-1.5882188058876836,-1.9456823064974467,-1.1693731015699658,2.3626018142659797,-0.7083503040315902,-1.5281225875337265,-2.8686294086368496,-1.8354978424570094,0.6262109867543518,-2.092269947379242,-2.7160263897586274,0.38037482138983486,-0.966532200776703,-1.7580268952095244,-1.953855111632876,-2.059435067685473,-1.7701986740388655,-1.1358710611464384,-0.7620763085738769,-0.19165749127794307,-0.14200522245724345,0.14983333537110402,-0.002077776257792134,0.3168117786893231,0.753462504374922,1.7493063175689925,2.702005203574166,1.9936590955401092,-2.1033321715064064,-3.428730673198605,-1.3605936590990195,1.0815527341216886,0.3851491812688452,-1.3285339961480287,-1.4485353074993197,-0.21127770846236826,1.311654647105189,-0.9757742734860153,-0.22457544304112478,1.82660426615186,1.4811907043717578,1.0375966244244426,1.589179378004102,1.3456867294978498,0.3165966410208959,0.4121340066110665,-0.03326224936821038,0.041427563291313224,0.15367466963164234,-0.19896380818776616,0.08964469530082572,-0.0139797857690585,0.6723547729572301,2.5372523696502136,4.51850033691644,2.439649527960342,-2.9247632409184474,-1.4107230310381582,2.90543922429256,2.410837100437892,0.8452574473850005,-2.2257414685305275,-2.7325108778903484,-3.631798344862954,0.5539848878036852,2.094018635141214,2.9219810988570516,4.664917665580705,4.01635613503246,2.964665605748498,2.7256331628554245,2.2199779113663545,0.5024254572246617,-0.08826576805996672,-0.0009381224090261292,-0.06028168146071589,0.1013327665687849,0.1314315189964052,0.18839172828438863,0.22463986988735712,0.7821067651765505,2.7352501099481716,4.643331944311182,4.570203544342797,2.399025629449994,2.0911621328158563,2.82398202402583,0.8329676561996933,-2.435346877664209,-5.782288270990706,-8.163435149676527,-5.9380033036091575,-0.17274940377241718,0.7669210889503958,4.3695598805200255,6.0845806260424595,7.792627145419231,3.730276646338727,2.1742548795982533,1.7047927238222613,0.134758303733495,-0.7087253200077405,-0.0044654243243651606,0.1433032621231977,-0.1923548024259276,-0.03989872569887464,-0.06796776646608396,0.20591919345781895,0.6228155267031393,3.096654098982713,4.337290647147703,5.714666769732683,5.365265042773678,5.162080277373252,4.572451694512251,0.1576102767098434,-6.028425174433952,-6.500642587264526,-5.647595546004845,-4.414351040622057,-3.4493490421061686,-0.2617800623635613,5.439080479892261,7.108654406333877,6.787601338029766,3.6876260522771753,1.6331006079336612,1.1666541304567308,-0.13700914447551263,0.03363251304985082,0.08166392751236316,0.1567467198221959,0.06575093178346306,-0.050956544118032215,0.2509747665909694,0.35728310413076436,1.0127276718592935,3.785051763211804,4.458046136433507,4.778824935923892,4.8539886623402415,2.8462750751230685,2.693493280651939,-1.2888912732635236,-5.13776689007929,-4.7012992795447826,-5.157348775583691,-3.9806730823986496,-3.767008075344913,-0.7961219127489775,2.121988539975849,5.445464754372909,7.22281080769741,6.308340462894602,4.01444635223369,2.1712017774171692,1.222187629141159,0.6514430198409533,0.23350895195532143,0.2049023708282674,-0.058911797446185576,0.24632818559893055,-0.18204483622507545,0.11088388857917245,0.9836119587141731,4.055133031145209,4.885274025680223,3.6302709080608184,3.228180847197878,1.3326244548041566,-1.8392209641498922,-1.8311661338862366,-3.709493201425058,-3.213441211609268,-4.338256844253307,-5.835869769748761,-3.691661793975117,1.6557678810769665,3.7813459323842276,5.785144088273041,8.529936719442222,8.273103324157402,5.041824440460399,3.429761801268288,2.5294340542982434,0.7152305190867702,0.1967940621415675,0.3285272007905283,0.06212539218946522,-0.018591564135280392,-0.35651407919847883,0.3584036616285888,0.6320337459252142,3.553112294917891,4.365055177878974,2.991060319096474,0.968719360149332,0.1535021242768187,-1.965094241807192,-2.465518714359365,-3.1393025330020747,-4.635543327351889,-2.631340214932544,-2.5819393259134795,-0.960426550021843,0.8509281247791962,1.8927428811402625,5.33891834023785,7.837226904540052,8.347237857114392,3.3570739051614735,2.1802310568220777,0.5743432044456569,0.1628897022076615,0.19922848121230818,-0.04652677153696934,0.11149032247697477,-0.22464536425753018,0.05031053995925789,0.4903179042464769,0.7417583621200582,2.4740335052686526,2.716891118752368,0.5615890240144775,-0.16500688669872496,0.22647796137624238,-0.6792614498529577,-3.5552676642652914,-4.997312988512299,-5.281258138191034,-0.8143469327799625,-1.6409409381391846,-0.06672342748108896,0.5434363625432513,1.3113385314746704,4.268368466915421,7.566992773576945,5.137544458020232,1.3591284319520403,-0.00965614769140097,-0.6037193288420044,0.40138756611232307,-0.043815906268400345,-0.12665898735815462,-0.10451268175679773,0.05401736186665291,0.126758047557766,0.14711606149847767,0.8948405347207841,1.9893958201873663,3.0470804771037123,0.4725061286216905,-1.11372316276001,-0.7046601589496145,-1.2468510122987366,-2.4334213191555203,-3.25419430541851,-4.084237814870267,-0.8909320733271541,-1.1698224747467207,1.0658355554522445,1.6138220723718955,2.9149540799015563,4.36167209823756,5.156432201509032,1.9388932753121941,0.5590647399345108,-0.6068540437160923,-0.4689595288956753,0.2245521134708742,-0.02037151313632205,0.0781462631752089,-0.22536976145520093,0.03668708859010785,-0.08141242768335233,-0.027623767917447417,0.14658645158805214,1.1891900906433681,2.362248786668154,0.4748312342433741,-1.4933193567018288,-0.8864707256432086,-2.2843091851675466,-1.6275251105283175,-1.1848613711779499,-0.685474772988587,-1.110506780070372,-0.9656945156142557,0.44103498102361965,1.1743285216861141,2.6697425391238854,3.063405494570854,2.316236196779861,0.4578302425955345,0.5993105696179455,0.3640832743422277,0.891045784106847,0.10560395486082412,0.09950560359602018,-0.20037540994134243,-0.11256015655556917,0.19545201842913518,-0.21132376762674387,-0.1838590042053885,0.19776717826632054,0.218099518257023,-0.5932910773196584,-0.6112177132579255,-0.8609881659566079,-1.7499078739112977,-3.122218270327399,-2.6826583422544816,-0.9737372129667188,0.7391581779136536,1.8133158950729642,2.5599989914270234,1.3131559441382867,-0.8960742792380787,1.2309884593478406,1.7324605054262325,0.19245495509853794,-0.09301747551375544,0.4188661276900515,0.8282893701449501,0.7417843586070229,-0.08108140217289962,-0.020341872353641648,0.0424714905530345,-0.14708651124238015,0.24496038921282415,0.09691231999060368,0.09229268380781915,-0.20458423785011437,-0.1420296410845422,-0.5413744968590735,-1.5054514434884025,-2.349154464881757,-3.566964124792474,-2.858134680283187,-2.021706705286497,-2.4267353226513144,1.6463638602154373,3.358600803897137,3.286141079000983,0.10761042573794771,-0.6499429221935278,0.2630249732301858,-1.387557826650704,-1.036997417250646,-0.26716959620646585,0.8602026689736854,1.0535243184117116,0.7541172392299532,0.21709545480538528,0.12550631791180675,0.02412544189686494,0.05625395400675359,0.18562763526883763,-0.2000303761996491,-0.21243714967230432,-0.3827742060894924,-1.1069927039045173,-1.8448059219035169,-1.9040608430154033,-3.420519760471226,-4.513108161560817,-5.201892000611721,-3.9648500257696924,-0.1412712546429105,1.9670105831710702,3.640823635454452,3.3962209945369213,0.08193937580963787,-0.6383557614423019,-0.6751225737483387,-2.226997946529573,-0.9349434174069738,-0.17178857412483695,1.1913061070341244,0.9763790378554252,0.41771500807045714,0.11013643284771216,-0.12907059111986108,0.1701095382423966,-0.023370175366090984,0.17422351104667833,-0.2051324407187063,0.06640894261005487,-0.21552857596251987,-0.35027055793898865,-0.47737709543559975,-1.3178614974561713,-2.4331509722928444,-2.358756807099245,-3.2433007647429046,-2.2186484705326754,-0.10784617859330303,0.9394096428255349,0.8579084089102996,-0.893635640488229,-2.3468537471914575,-2.3079770668444692,-1.5881133915324503,-1.450154479781216,0.2136853476517472,0.523689894947359,0.36621492615639434,0.42952613267768736,-0.17568335498754586,0.031795740497757026,-0.11876664195317552,-0.0762129400328102,0.23293897658307527,-0.07831609426649411,0.1078680808705903,0.0736385149494263,-0.20583854629028023,-0.03541394775109144,-0.1469812259669919,-0.11302049888290812,-0.4812180088648564,-0.5175402962173581,-0.7502613808967592,0.07880116130345668,1.0459423498718872,1.19613874552285,0.25092300479473195,0.31759326155899315,-0.321248057911183,-0.4954398785673925,-0.6728925727345854,-0.14216970933915973,0.3422668857555226,-0.15237240730059437,-0.01208525201471583,-0.24733900644154633,-0.1482769082575787,-0.2226444343984792,-0.015584632272437893,-0.22524276500186924,-0.18118820535639724,0.1511759690341078,0.08925713690294734,-0.23211363470395763,-0.16564133398592062,0.013817066462934433,0.06468193180148876,-0.004684820504794175,-0.23129534174746974,-0.05006777632695946,0.14277302532504937,0.06127589655405464,0.3004041609080767,-0.04338308783334048,0.09134771418635688,-0.2880549443093157,-0.14708431172748554,0.11022814340857576,0.1499269031519479,-0.20605198601970168,0.1568801314127075,-0.03513577739880808,-0.12810585110588046,0.19102386621185638,-0.028475005603011083,0.22569748087749453,0.05321163541148932,0.05087238241306624],[-0.1534946448261073,0.23741259121438885,-0.19652939878224218,0.052747933645081346,0.1331836144248576,-0.2473002452601868,0.016058284187067784,0.17599393875816116,0.11718260726442786,-0.07083986830691968,0.1357593624339154,-0.08236111422941228,0.12163580658231479,-0.21162235651906977,0.02544374039970554,0.08875639453069306,-0.17264134150885002,-0.22589898796765562,-0.1766140427501175,-0.21015642638453158,-0.13501244523374634,0.17683577262860273,-0.21982574855144954,-0.2230761143870642,-0.10862110302618921,0.021314013578086377,-0.18451679427007528,-0.00013674318240119998,0.11562239503463634,-0.0386680567325135,0.0017206873458649463,-0.1494826153745591,0.17125362360553262,0.03474497987050205,0.21590952037986727,0.012021228763884,-0.1967485008300554,0.08107771342276551,0.3324647871130126,0.21241295845567906,0.18408992528386717,-0.16805619160908453,-0.27326077439596014,-0.0018611158922307604,0.23513102218366824,-0.06986114795048198,0.059147352225153875,-0.24269445895772204,0.024663681404359275,-0.11179277374925477,-0.20984236206321077,-0.09116013796801037,0.0749366218396661,-0.09509135964405446,0.08083249638427736,-0.13801641031083467,-0.2287078139328923,0.15651827388509276,-0.07470038462876749,0.06441290350570146,0.18264917632128888,-0.015856274746418018,0.22277414249255967,-0.018469038833732868,0.1560657007503983,0.023800506882079717,0.18529416515617975,0.10823708344446427,0.30891548986570283,0.15826796566189075,0.3003384746676029,0.066083416944425,0.11088686813760808,-0.03371180627745821,0.04674705113913881,0.4074216402238276,-0.2463786276279557,0.008508030571092772,-0.2620993164884646,-0.10651174373445282,0.07474352807122457,0.003771268535419987,0.05138091397752231,0.004235124575526772,0.1587574950364392,0.11397742694738944,-0.19536975377208066,0.19201227533066131,-0.00021836372114130648,-0.1406064006654517,-0.2013430679916499,-0.2530486269719425,0.3501124226821445,0.3783916238949923,0.39692201353904394,0.12917930892414858,-0.17208460411276824,-0.5810136472508621,0.5943569115868442,1.19254788300043,1.1974742017844726,0.6181009876721625,0.8251530222304446,0.4328590607438648,-0.10724989000166504,-0.18479158033885323,0.22932113326080794,0.0063703827563798745,0.06634151367661982,-0.10694525733852075,0.14814865095562518,-0.09414548453023874,-0.11871184392077361,0.05864939535097034,0.1691643617060707,0.18731168528556363,-0.04029062505883907,0.28381778487331677,-0.08608471722208973,0.1424580303377935,0.7806897215448579,1.6091516098290424,1.5651537132814912,1.5918523634503403,1.8064629745090162,2.0299769766133537,2.649387278576299,2.400198845076249,0.9366063282179293,0.11959834706777303,-0.03338249710658239,-0.4617457170361159,-0.8835836554746972,-1.0726373124760304,-0.5856126087589518,-0.3755505841931165,-0.459892805881251,-0.2612595429003027,0.20694033953696,0.2125415455124189,0.15445898791533175,0.24056791759485396,-0.24363085648268445,0.08625795429415471,-0.2053085060449146,-0.2385763000840356,0.2987983849053772,0.8356562189572506,1.9514456863223388,2.1295203816985535,2.352780876810013,1.8935805894871343,1.368629452734186,0.036260069833986254,0.5615428887019344,1.1541624643873964,-0.23834685403233374,-0.7384666432833507,-1.4138470673418175,-0.38659624025532663,0.15000534911912952,-0.7132331735444872,-1.1900115713986463,-1.6386748219974734,-1.5419101273977254,-0.4604336323847079,0.16249816559585767,0.1220207933584021,-0.12155370422303213,-0.17412488142529434,0.06803697300315442,0.14852113320123714,-0.15196909214689525,0.42311023696339894,0.14469412073732968,1.889647576980225,2.7080503949501797,2.2906722191581506,3.4985889968188415,4.351512171117291,0.7673555842112599,-4.161741623664185,-4.187242282779064,-5.252442124473791,-5.23292084041604,-3.1594540470741315,-0.5278184307596321,-0.5035849306545848,-2.283414603342749,-1.4445655649760445,-2.411589860547507,-3.5323508640193606,-2.4551725355794365,-0.9408362520324399,-0.44917523107848245,0.06009736411138764,-0.1710913013731022,-0.17083660900871928,0.09570523502493432,-0.15030679950512424,0.021020251395960317,0.14289659442408645,0.9771730545386402,2.389826083706924,2.8105712787215547,4.381875178123125,5.629758163829738,1.4623259967871804,-3.1264129044961706,-5.817403777452988,-5.282190743352311,-3.209684406730488,-0.6425125068487546,1.9626858476181646,1.9391301591649655,1.4743405052775551,0.05295659143360707,0.01660979338626081,-2.861750272361494,-3.3766557029146744,-3.6387483787730575,-2.1794079453305257,-0.42035636870098647,0.1566899409875447,-0.16690473014837656,0.1821165702182434,-0.21542902001870193,-0.06894013982244303,-0.008598198954068185,1.3347337072055094,1.8463604714667106,1.6485399088101849,3.0535479064272772,5.541917134611926,4.653152871483754,-0.019569050615279998,-3.969175881883782,-6.011786028561858,-6.917846638154979,-5.100898119436265,-1.464356819838077,5.82908936665433,7.78992088916824,4.208464196881442,1.8105046279005632,0.6003800246541273,-1.7096482351097988,-2.3020378129796586,-3.8520382618237874,-1.7729335276017317,-0.18313333312801358,-0.19972099173346247,-0.22348115303896038,0.13928638621638886,-0.27905492102041757,0.42198017280606537,0.32263690297252895,1.351580138720516,1.4349674331624802,1.991877519889839,2.1577371857824614,3.4660676860652693,2.18637938168891,-3.0607884418506086,-4.286016636928931,-4.4233227975588525,-5.873251401838711,-3.7183721102073775,2.6405817723470615,7.7527740952401585,8.27556992010823,5.676214798717164,0.3279964921704796,-2.33962896881023,-1.077563811740024,-1.861957428585083,-2.584015250515745,-1.9715550913269801,-0.0328192728960049,0.04103471303955185,0.17999934128956468,-0.1597466482986391,-0.1644383022851808,0.5351600135652735,0.6731578784259448,0.6101122056191783,0.6099450252563274,0.26248284336063116,1.0361831039203113,1.3285712280579465,-2.632034396000021,-2.7326618022278706,-1.901008213156481,-3.095582950025194,-2.944255638873779,0.8283957310577383,5.641628090913736,7.386673708667832,7.051683630229433,4.176365878319353,-1.299453713938182,-0.7647041402651968,-1.0550055522487125,-1.1949597284828728,-1.769328651293544,-1.6013047154503581,-0.15269635370078602,0.012735797456896195,0.05180205616486096,0.17333068369725554,-0.1477047862520165,0.10423816823693895,0.12384899098417533,0.3508188976103853,1.2413234943346898,0.5627107707422385,0.21566826487402832,0.04995791019527786,-1.5419654711254682,-0.8213084377212465,-1.645085587020021,-2.291187101104105,-2.1922324626265173,1.8019206636361385,5.613731442831158,7.1331804562348955,6.763875923967058,1.5132445599578492,0.5684944630452188,1.9812460319733451,0.8049172707223142,0.575744637340632,0.004370624423631127,-0.5572921137835954,-0.08213791623303086,0.22373795733971946,0.1762320563639459,0.2463877501296189,-0.20582717114748925,-0.07034657895817147,0.28952797302042976,0.9522008239216072,1.368891691660091,1.0573005094167005,0.44165929004827925,-0.547866490837291,0.04304297249419735,0.7904089337520768,-0.2543994952145311,-2.619972428340465,-2.401960997801394,-1.7547411786007066,2.58228623999629,4.557096458671558,3.6104205011451223,2.582508921618964,3.2094151803954056,3.536582507590732,2.5725080689519837,1.7512558386871706,1.1171985397477053,-0.05451915079491096,-0.19341536487480954,0.06621658973488674,0.07708068332451168,0.05184081341154462,-0.20822445160337522,-0.16364912631157572,0.9179811424335439,1.116431115884381,1.0393059512150935,2.1282308409260198,3.07618566665849,0.9440189095260466,1.1757237632113253,1.4580190015211214,0.11867814442284413,-1.8165010335002834,-2.54403788432467,-2.4506551581556213,2.333383798673348,2.890623254439323,1.5772285976488138,2.385794946524596,4.836303862849987,3.9730910822233816,2.6295000446578114,2.225995688828272,0.7350236658222162,0.19491967480323433,-0.1165443824883761,-0.22635327776036152,0.037728067816902286,-0.04318583711965478,-0.046944403730315575,-0.14762616064009934,0.4368049463936182,1.6379700597039315,1.9022504813006311,2.6376703780732473,4.34564249403172,2.1472510238511346,-0.09855551743739227,-1.272624346556725,-3.692478383931566,-5.341345597799465,-6.259828217402626,-2.843657960301972,2.1347416711136846,3.3128142399635023,4.70061201505028,4.146430648810775,4.661092173647474,4.372443070298524,3.905678970582372,2.163419597676533,0.7718650481251947,0.063722324209446,-0.07079255165050383,0.17484055700570536,0.06932294242910232,0.18848988265389457,0.16004158927761905,-0.05452012197449726,0.42313001004195405,1.982055664852941,2.7559160588227725,2.3236657847179654,2.5227750971976777,-0.2790447349639534,-2.8613414881165697,-4.1296689845792915,-6.7060883630897665,-6.37058918801006,-2.023235366497493,-0.33073376115427994,1.4472378976409463,1.7594446369588819,5.009882455392531,5.107630787874873,3.5781196078161788,4.411495571432032,4.230107080160595,1.6961864458369706,0.5052823223839046,-0.07918397914062308,-0.0779063769265416,0.18758939016505632,0.17760314055394424,0.19764750322968253,0.1325963249948363,0.4042109723755478,0.33858063561638435,2.1234962063126406,3.1330082710923954,1.2085965058111257,0.13472072913648744,-1.7643850475593823,-4.174508216805111,-8.265593434362897,-9.468131744257704,-7.699778062104019,-2.768275264042986,-0.8417010575253197,-0.22839194596539794,0.7129253131235062,4.020509754089182,4.838721179317267,2.666798175353388,4.375035224012062,3.3052846191325775,0.9784396828169175,0.34433882062729926,0.09890139078077147,-0.21028203011218238,-0.14272228587564453,-0.04875809137423315,0.04698053361359916,0.10898712833919431,-0.08426106138708876,0.6620991647446125,1.6601546585057163,1.5106532198482012,-0.4570615953413315,-1.1723628647973723,-3.0576166278579047,-3.6959023834032663,-6.641487220367385,-7.065642065740701,-5.801601826531002,-2.1765544897458313,-1.3979695447700067,-0.6501036500309765,1.907857226538193,4.331860856862799,3.4159485176172084,1.30817186345756,0.5752381468291345,1.609678291461354,0.4144670663953543,0.03354596147814921,0.2590878629536344,-0.1230294492678481,-0.20002687598294633,0.10924439761060885,0.1466704401497013,0.07001807837660705,0.10480596182644154,0.9582587790173687,0.40206827424883884,-1.3326424145978857,-0.16150741492364407,0.41352389438845283,-0.6068590866471609,-2.7509388930370178,-1.716745378359927,-1.277672812926978,-1.2889826833391098,0.04716880099462542,-1.0225300979928051,-0.1261669913179706,0.31760654728193677,2.450498637115072,0.7172741831499497,-0.5932822458253518,-0.49330678336872524,-0.4228476649473287,-0.15449898213498048,-0.0018855433053508901,-0.2088373293128975,0.13783263305555848,0.051392802668769125,-0.1343545072666522,-0.23079218884007857,-0.16888352018744093,0.17300062185898338,0.5605862737380717,0.2709366006473189,-1.288243368839533,-2.273620108900814,-0.7456759353430715,0.010915848293640824,0.5994160679984318,1.6474496452966438,1.855007274268411,1.0077967406442234,2.1261805876638076,-0.2654069947817198,-1.5990504097684748,-1.4009579610327787,0.30942909925586926,0.10007043889434243,-0.2185664704607625,-1.4981417670484518,-0.45508165284250185,0.0147061013226418,-0.08185936951153829,-0.006250460236080034,0.19060256151110916,-0.04605291225717328,0.0784250578153276,-0.07938739667715615,0.19801915104534504,0.15860244660434597,1.0316312651443824,0.48016789465100584,-0.7670140234897986,-1.9087790847228723,-1.544682955780046,-1.0339817913044205,1.2628148618879123,2.537731846052244,0.41381758143257746,1.2944758375274517,1.949191986996248,-0.7143004069943739,-2.665885817430522,-1.6687664763238272,-0.9152203228359603,-0.23415263093157868,-1.115883075055158,-1.4836607994141637,-0.5746615385788603,0.12240351001534182,0.42740593297633606,-0.1847805575167344,0.17786152373257447,-0.017021854995090985,-0.041988462459685606,-0.12376561465906162,-0.10239570571020504,0.11153143271895762,0.17471602831942973,0.6342876187468984,0.10132719613170016,-0.13913785713510138,-1.2999811490482092,-2.991059948293199,0.7176660304685837,1.5971339567859837,0.4558814649782408,1.51634926176371,2.148492031459333,-0.20563627318601144,-1.5486964452826801,-0.5092988384183396,0.34494290035892583,-0.3208485934981651,-0.7733612324856376,0.39332536781121563,0.3935117659389198,0.6346803980942353,0.16396133888328773,0.23344939026066774,0.1365034992607868,0.21642338423890883,-0.06909909789998915,0.10206955850464182,-0.1235323707513079,-0.06099786651312557,-0.296153872727496,1.1241790380152668,1.0587281285464696,0.7960315077395661,2.10272215854194,-1.0011457884958288,-0.8098892457805723,0.4496002493565334,-0.7879466065575115,0.4727000700007857,1.830448892401468,-0.13018272145560764,-0.8764442038291197,0.1652070383216065,-0.5202755963960637,-1.4643937217162746,-0.34761332929122113,0.8871989316838766,1.2091131501303802,0.4078160363403848,0.25327836425166833,-0.1382618322826765,0.2446989286187503,0.056097038440926505,0.14812628423576868,0.18565747336982064,-0.12293296673270411,-0.26890714667262744,-0.030640183883255127,0.7466287355693251,1.6651953570708362,1.4459485233474771,0.627521704511549,-0.08090860076018007,-0.47771113011622335,-0.698865337848453,-1.6603621405437363,-0.6868009089617565,0.025221321227166717,-1.3390619345139227,0.3355369610879224,-0.004099119059025215,-0.9755097681930631,-0.7732349364790643,-0.22469670334945865,0.32852400881439364,0.5425757915840067,-0.168983272129719,0.168461473081792,-0.07706081942183954,-0.12847135336146087,0.08513282291194368,-0.10150445399603825,-0.01045247232415103,-0.07550888902637054,-0.08892320421136905,0.1470366891513431,1.1415128744376248,1.2867090991901384,0.9797264996432834,-0.07220407064546877,-1.211495213709258,-1.0103127772820575,-1.4757962277862604,-0.19685419669012932,0.9880348034067572,1.701759917955606,-1.237855098894034,-1.5752643537225894,-1.8703239642249887,-0.9306028690094192,-0.6168010771658027,-0.035771831895037805,0.28515910958589247,-0.09973912918597035,-0.3012390225840514,-0.004318269976402338,0.03687343015669604,0.17696692110596063,-0.021461119915670124,-0.12870510965595505,-0.01697962071282233,-0.18233740993557845,0.12218864779715022,0.36031138213502445,0.7420294806255914,0.8876250163631239,0.3687693961149222,0.29955809475199663,-0.017491165927533026,-0.9799713528499483,-0.6718192439290719,1.2823381054304706,0.6633979862922527,-0.322807918670233,-2.24367462302201,-1.6184656617621713,-0.9058722507502879,-1.1992075816778796,-0.08146891835820304,0.10860737419760601,0.3650879158876723,0.1541521450669397,-0.11501571564520258,0.09581409600448822,0.012026369461363953,-0.15537483029956164,0.24816807013989473,0.23233360893295263,0.18263976752631628,0.1657202243075402,0.2220199687781531,0.19446047597822275,0.17287298098239526,0.17175412162938652,0.3780653690422026,0.23741535779327944,0.2102028225745326,0.7000177546898456,0.7228250351858572,1.4113616338764645,0.8172519992520162,-0.07738470919580802,-1.1583442875602168,-1.564975025982157,-0.6215023346250197,0.20961759779149552,0.625212335921754,0.20468886739026532,0.13689924183167035,0.17176855205361874,-0.11947734627278409,-0.24350673516973265,-0.20088336798567227,0.14861082061588582,-0.16444027447372533,0.08613838529246864,-0.11119790357271186,0.24454033892773686,-0.001698090458130852,0.09857962248211224,-0.1124154109433907,-0.19607364549781917,0.18744215672676667,-0.0858191536811426,-0.13775482455091792,0.21055657752351203,0.031807420730854505,-0.3741327616464161,0.09150648384808538,-0.17626361256742554,-0.056742729024123056,-0.2639617460406146,-0.08329452609921278,0.19414276909606726,-0.07400813147581221,-0.13960268647792654,0.22469336598182713,-0.09528706235276789,0.2054641418110239,-0.05691660832063039,0.2278180418776331,0.02432239662171387,0.04802053427689135],[0.21637363681473287,0.10075308416668494,0.15533283791822805,-0.22290918561631845,-0.20954800608211865,0.18920612188897235,0.14278717279613373,0.14005183764693108,0.13178621554722747,-0.026117476069782097,0.2147709941927446,-0.06085538875681984,0.19047666864205587,-0.2462306605641184,-0.13363016492019741,0.09218577047029664,0.11802519317614002,0.16800509517997653,0.05234360337452848,-0.17079583456023473,-0.2176327922320409,-0.22352795545634796,-0.12696849464360627,-0.09186080761012738,-0.16049276202675933,-0.12124459520373909,-0.06659613879223314,0.18554125795018994,0.0763472998650061,0.13962034848174343,0.20240143122983845,-0.1421822849819917,0.1267450490177895,0.022781937496976767,-0.10645151087215743,0.10668335901318916,0.17429475706044542,-0.23246150163679372,-0.17962641924158965,-0.20391108700126317,0.19638079295476088,-0.1009723475753687,0.20583837969496552,0.15316968203649756,-0.0034754357703790715,-0.058157807627857425,-0.0637843156157633,-0.002416200367093884,-0.06074275115742462,-0.050871366791666435,-0.15790695383436984,0.09315067038176346,-0.17094554544184148,0.2136811862433189,0.14277267736150334,-0.2054644705028159,-0.11238851546505435,0.055602598192786346,0.01166310160821804,-0.006523049168851602,0.20106106335234303,-0.17291756290161592,-0.06588230403018491,-0.20200858128985127,-0.3128578023995965,-0.37078172044816166,-1.2402133395563233,-1.0110503198023388,-0.1985274320072071,-0.397685842516601,-0.4703998307237149,-0.4053914447652123,-0.21777551507239606,-0.377600264608473,-0.4972124729622405,-0.7024349923206419,-1.0820139328787282,-0.5817624596763161,-0.18231105785358326,-0.24026201473106318,-0.03295403092593074,0.18224623888575986,-0.09322578411777294,-0.21400042637367633,-0.08282422467704809,0.0854079081438468,-0.13691158411869517,-0.04679580915629355,0.14362580892132137,0.22369463299834633,-0.05602616410091223,-0.055685679127420416,-0.10993851974397503,-0.8204615253921952,-1.1852885044216346,-0.03408775650511893,0.41024503787256944,0.15477765603333296,0.4460177302405681,0.6853023098785802,-0.9255042162618193,-2.4171609373886334,-2.179687343568639,-3.0954482429177497,-2.2593036804587774,-1.654297537201467,-0.3440241489500785,-0.13779084495710972,-0.07109234120261484,0.08931207016229978,-0.08423286830241972,-0.007777637661987025,0.19955151004756932,0.10433307405525115,-0.07425266254438921,-0.23173166487075236,0.13516369346732882,0.0855982456840494,-0.1432423265976686,0.015103997494211933,0.2878831938609117,0.002359138503165998,1.3415614713397126,3.1188191180185,3.314247063245587,1.311989513511292,0.4728538569321157,-0.3398232164222525,-2.0960071865519296,-1.8316720559734838,-2.163766872781062,-2.514409445587435,-2.686411964550572,-1.6242118371129977,-0.6742851880591814,-0.42544160418413446,-0.4835390106195852,-0.14071367672608387,-0.018166136750893538,0.13735068994420918,0.1901174973937071,0.03379104928113119,0.0885386431167681,-0.2043348577760467,-0.046457111910346155,0.6401418368847279,0.9044780828994634,1.5382392524846755,1.2492238376691238,1.0165559269568318,1.1149210307669475,1.438501694149278,1.5135704432221297,2.658779163928684,3.244913927953615,0.5283927991358388,-1.5391636217609381,-4.08004111336731,-3.937452797581288,-3.724689022043977,-3.2929355555946276,-1.456901286841518,-1.43703481331458,-1.4796183658724051,-0.7478379407921921,-0.1250180154345924,0.21408512156915774,0.2162368501831209,0.04534504533232453,-0.015744026380446717,0.2432538004033671,-0.057655986308821655,-0.002179703473265885,0.6233406633424536,1.5815369369767525,3.0652422281696774,3.5593904297918915,1.7219957173809342,0.19652815453985234,1.341199352238392,1.1089123687791647,2.4623587727073994,2.361369054588806,5.275134587316371,7.1479916341511585,3.463881534258473,-0.17765916706991836,-2.038645960042782,-2.284259393616945,-3.3764019785684933,-5.321206458171992,-2.76619089824585,-0.19552802219130683,-0.01936463156698071,0.13717476006922155,-0.02083648527725592,0.14410868047238956,0.16460105192282423,-0.18232726968834234,0.23472379010547362,0.4165861745799108,0.7206472811606262,0.39466860658461284,2.4477496356701893,3.0298744332239766,1.1060107789430693,2.4759999917731,4.668658625347925,4.4065403297246295,3.60957015367479,4.282997047398755,10.85683683839701,13.438948747670256,7.641786212661363,2.21458323675313,0.28182245563774155,0.3626296809084103,-1.2352688868669865,-4.601504050501996,-2.644901682139392,-0.6214850050153088,0.23554539600842508,0.15880496264872287,-0.17500898261802264,-0.12648552328940002,-0.2285966730535248,-0.06877393678737007,0.050725187621369384,0.5131293330532075,0.024409513922923138,-0.3795320452741359,0.6415659098183721,0.7513709990182054,-0.8687465872807715,-1.4670470979312336,3.4590771240089926,4.586914475031712,8.27739814464936,8.005999125166069,12.519319594204159,11.529603803818622,7.720811901296298,7.436471014378632,4.976091978973775,3.7476393832179884,-0.12937914928885869,-1.2470918913204647,-1.0066957416659204,-0.7759855433297969,0.3698502215340481,0.16864978380491583,-0.030884413404583026,-0.12340471000037508,0.0002199071932045643,-0.07680646162983722,0.2512222657287302,0.7743576108593934,1.877920448605558,0.6173127293726587,1.1540550597632793,-0.13276714707019588,-1.1475816298435746,-2.128257276212356,1.747065957960721,3.7079002365343547,6.695906186985406,12.00712086416631,15.51750755570236,10.331622827654003,2.2982760147453614,5.030037552610229,4.120531550222916,2.246250319894389,-0.5741164881763101,0.18416048878706717,-0.3649123367345202,-0.10393473795645271,-0.006639487923925599,-0.22474346799802913,0.15607812516783087,-0.03154216927345214,-0.046997362130469254,-0.046455617686581935,0.7072151640631544,1.9506477053962026,1.640558219144089,0.8530779385477002,-1.4458123195809058,-2.584623374274066,-3.3474365616719632,-2.2699555916053824,-0.6669231275628977,-1.1695259290727757,0.057357042530877624,6.011964599795945,8.677098240308327,6.057018178889707,0.9515431519153752,1.7826833177702361,0.6799461014301945,0.3782377273998441,-0.15336857728815786,-0.4653564123442563,-1.3140719080084573,-0.6959131946359838,-0.5376011789039354,0.085561244825565,0.12636285057496346,-0.23942334727997294,-0.06667602861122539,-0.1251335452241389,0.3190792622883264,0.7036128598824771,-1.077653378715254,-1.4985429461611577,-4.520599009398256,-6.031829231690353,-4.429462436444679,-3.4764334244515074,-4.857052664813114,-6.011942654999013,-4.717362782429102,0.44254750230039486,5.050388506569695,3.6451887214015457,0.6860742595141881,2.1592679492597506,0.04295801034629023,-0.6838372930178066,-2.260269108682473,-2.198505488408015,-2.712233372980671,-1.1004802211825062,-0.2780757990795718,0.0957070776840243,0.17679907173448986,0.0900223105419834,0.181317171892389,0.07922716046358164,0.03603156053345788,-0.5827073089851612,-2.026395362640876,-2.170692591241199,-4.260819202534639,-8.075682623677425,-4.242407583086158,-5.259893600698712,-9.507067237543112,-10.71267768586487,-5.951459822756935,0.9203866006034777,2.674618391957397,1.1075991627594823,0.47934692922151817,1.2973063921493793,-0.6843991172672284,-1.9713492591514192,-3.797357399641646,-3.5563165245121566,-4.163799562337994,-1.2660832634165196,-0.17116763367390292,0.005815735075898409,-0.09439980377048945,0.2306247221465989,0.08701504173028252,0.013745686824750207,-0.19531094182827366,-1.5080014604842047,-2.409848097638518,-1.2492963276002396,-3.8058196710195604,-6.399471747755169,-4.611638103100351,-7.133607322585807,-9.375198077708724,-7.69405397123879,-1.7202864293512778,5.158260666305409,4.064966271785187,1.101504728919856,-2.371920724037365,-0.4886824778903153,-2.629967391400723,-4.560962691650475,-4.752410038054851,-4.238317599953498,-3.5208613093902668,-1.4601875582301573,-0.26123365443529134,0.02786243634773762,-0.11111460922848584,0.021933746636947138,0.016795580685645087,0.1730584486419014,-0.6120514984622479,-1.8487852009491503,-3.4599469714115396,-2.522536819847965,-4.182818425867001,-4.0812902905596875,-1.2048808686712282,-3.6921240854059603,-7.153855170986592,-4.01847940209951,3.9680599981144695,6.292005592638768,4.319402047660639,2.088492101629281,-3.504674376933654,-1.0850607098962983,-2.5581620343069136,-5.712301283126468,-5.31847670493252,-3.709138357283064,-2.177712711002943,-1.2486466356292705,0.08672509163846047,0.019537889814829786,-0.05389962130405276,0.15672517722541707,0.2341616777332549,0.04617930035442126,-0.5171384945047273,-2.210636446228759,-2.0633998030121634,-2.437515548411385,-3.8254962209921897,-1.8383274888948662,-1.022175295155888,-0.6054878022078458,-1.4486127073942217,-3.5849502678512537,-1.1095753729723996,-0.5342412162297504,1.9658532148986854,0.5888068650039474,-2.76418913475105,-0.1462067279557382,-2.3337226089069216,-1.3474987081171916,-2.295937569593811,-2.7976845817168967,-2.3394736002551104,-1.6929817155932811,0.1427350210373443,0.10889338381585295,-0.09003244444579953,-0.18264986490182758,0.20808010174614433,-0.10765386675136147,-0.6411083059122172,-2.1130568200113666,-1.4826619199677564,-2.0035198417945965,-4.476218010118227,-4.518817604754927,-4.357819514705673,-4.405335054669785,-5.601299594117739,-7.152446162681995,-5.125923671701803,-3.003806961615346,-1.9363503939289275,-1.5765662559694293,-2.5933093741763837,-1.5982446453799743,-0.031109717645895516,1.8457801435963732,0.11782074073764018,-1.5852914246647734,-1.2111676334879362,-1.474355858366986,-0.1649179794789552,-0.1821961642874728,-0.1209239696556692,0.2325306336724393,0.017743555402186303,0.42585101820188836,-0.4015095477012991,-1.0933169109801686,-1.486333009637359,-1.569892146927505,-3.5329179066838154,-4.695341254230458,-3.581582542195136,-4.666736384618313,-6.573125383949297,-7.432125796942516,-2.700802911082129,-1.7418120512951887,-1.1875682278921689,0.37237486102240347,-0.2809817549573531,-0.5327613607242571,1.0240050729716592,3.095427839658189,3.7464333660612796,3.118620186967859,1.7384301245687246,0.9613583777183518,0.06496767086844721,0.3268965381338663,0.2218497078682837,0.09658522445064247,0.08682275489085042,0.09605426007228589,0.17607992762979863,0.3211940302243305,1.2778064276800913,1.2515086065366297,-2.3635875361379437,-3.4361611312860165,-4.7707161775145615,-5.533642147293337,-4.025026315950162,-2.8115455819541952,0.3316583946041687,0.7309578384817986,-2.243699927878798,0.4801067718945458,-0.3602277003465744,1.9547425677556094,2.844847820297139,3.3210900652624464,4.042090688742149,3.3907953676063194,1.8607413849840069,1.090419383411421,0.7935299136655157,0.22963344704051838,0.07301143699038272,-0.18368327706484655,-0.04506297141124401,0.13781035698145425,0.2614349188739829,2.297848651681169,2.9962680487402413,4.081007774498158,-0.5174364011546829,-3.2017133444848795,-3.7141700484579574,-3.7396418712138266,-4.101684571871156,-2.34430836455902,-1.05461556218308,1.868049305843628,0.36831007699675994,-0.5417174919641854,-0.759392713463415,0.25257121354580564,-0.11214671559501106,3.3349754061682857,4.142406114013937,1.8978573794870675,1.5942069737799922,1.334395481101643,0.377558293312179,0.3897138107181113,0.18949644125588908,-0.19032597426842912,-0.16755693611862002,0.24560423254020167,0.36883069869862983,1.9775199968286092,4.312586643600684,4.5538397073148,2.209603907861968,-1.0330562758896913,-0.5510829382213487,-1.6997809806574549,-2.403930404301527,-3.7692093916905502,-3.0868019357436705,-0.1259880979737483,-1.4347942973602288,-2.4924178932344847,0.898711641514513,0.18257894228181862,-0.4347532806718213,2.4899950011908096,2.3008323600204292,0.4030179762412481,1.0700487411598905,1.1004447611910755,0.24897699759765823,-0.12779844428395473,0.016359855623126786,-0.11459732987834881,0.10185614701240171,0.05508620521209645,0.27815551820038975,2.48485261272845,4.152702481812269,4.540206583658428,3.7301980712729166,1.905332583994517,-0.003573212706713043,-1.263259268762739,-0.9555636713856053,-3.5269131007553454,-2.645807674044915,-2.866102681113057,-2.8835956838700603,-3.1329984757843445,1.8557453223567257,2.934437959423212,0.8406180481026464,-0.31588789338747775,-0.37264383257326505,-0.5683508842896184,-0.12102588041425921,0.37575803381781253,0.2620906737466966,0.04530857428322267,-0.11317848825171085,0.2133963244682694,-0.2255869118519251,0.09160684888948416,0.21112294482798968,1.2651478718538611,3.054533156459211,4.468191194466195,4.173570445887203,4.037054822699418,1.6361775479429699,1.931365951251559,-0.32476593039391344,-2.493935055316536,-1.7405172848498045,0.10945423372068218,-1.071175275810349,-0.8913961239247808,2.7637051625141797,3.3589299013204226,-0.32505770472852463,-2.5974248398241286,-2.0955390197797725,-1.0181431120899045,-0.298389302849086,-0.05816406398575023,0.3276573952171333,-0.15344087692493094,0.2345623689280135,-0.10327299884955943,-0.15889158154934202,0.1261160241197614,0.22584607281425323,0.4545264535641581,1.7569517358353577,2.8822700496879508,3.6250966513262606,3.3002598444097897,2.647351021221952,2.033982711674464,-0.20161037851968736,-2.7897899080815947,-2.5570828222904747,-0.2406852139747644,0.6582665362457609,1.6366058604459197,2.7581505107701036,2.9622351392750446,0.19101920634578534,-3.954591144271945,-2.1777831320448784,-0.7646574561485846,0.023017087278995017,0.10719857258793818,0.04848961362421038,-0.07357681353052818,-0.23734946425997328,0.23063156926242245,0.0952307136441074,-0.07714502385095716,0.0749892365617285,0.8398011067070414,1.3837734509921404,2.601639657471626,3.2437465446626983,1.6491827471094338,1.5031144113742063,2.05658818830291,-0.11177212834421754,-0.7782054505457704,1.1318039022745663,0.9480019839460534,-0.055689224158336464,1.1057172650379483,2.1762274604149967,2.292993771524518,-0.44572719874242944,-2.257073115629827,-1.933741213470478,-0.4468325001526675,-0.4171885606876004,-0.06180721925992542,-0.22658438347475957,0.18421658128436133,0.23165751321937988,-0.20765708447323017,-0.12789578044416283,-0.18444641568192324,0.15219166796008782,-0.11880751606415765,0.16767865679736546,0.29277355770040914,1.044728147146303,1.7100068234473147,2.616577238572061,2.32084946876221,3.8365343868922124,3.8420907641443507,2.9431654524380972,2.6593349377028868,1.9634246664223096,1.0571549009792511,3.667866229162639,4.6466473900662075,0.8938233792150811,-1.5045113173386333,-1.2866601227159993,-0.43379766547372084,-0.31558610115725577,0.13029176841225842,0.17197861607602571,0.2013944277293228,0.013614340198577768,-0.08116071121962276,0.11173030215895208,0.14925587996333234,-0.008624735911864178,0.18666309838237044,-0.10445029806418032,0.2839260853597487,0.9561171704858757,0.8755901742602638,1.8353777959704176,1.4021990837452842,1.7269730139967923,1.5035228193632124,2.618117624759059,2.7736905963628473,2.6124562666156708,1.9628191918119704,1.6431051356958324,2.6482784524816734,1.6472009092505073,-1.3068315477396104,-0.7733897921127759,0.08109231479048559,0.07533357089267487,-0.21311533428284646,0.06389660127378982,0.01604993510628583,-0.08363440686892876,-0.22101677493184835,0.1663509343787969,-0.037596779121144785,-0.07879573519707872,-0.18054711236804397,0.00862453445053879,0.6652715623571397,0.2967716395840037,0.20822533522554013,0.16017622852362662,0.2517063624232551,-0.009954159089937714,0.14944306643792699,0.011320029988475793,-0.12960782092678064,-0.09007372525208794,-0.060324970572702766,0.24634499464073595,0.36960546139499423,-0.03396136849100483,-0.18327990222935206,-0.15996574506016242,0.1085768158557089,0.10755969207315841,0.12546329213126062,-0.10884825898793338,0.020918667967797733,-0.1622469466844657],[0.19639267093399748,-0.005689221093880481,-0.10851324677478191,-0.04728661042767335,0.21165345700069071,-0.2043493025047599,-0.21631843358354919,-0.21303319452601266,0.006131738642889184,0.14498569722239318,0.22352491212392234,0.1909751206523339,0.02518460883794693,-0.0875082467521997,0.20811344435363854,-0.023514700520097964,-0.1648506105695794,-0.23616866034572426,-0.14126091563876153,0.24491142059320925,-0.0225228223151549,0.09789635125875407,0.24331797542693456,-0.1645134451540866,-0.11109557368140976,-0.24804839954104352,-0.14863911550125808,-0.18529146485230696,-0.21559250276801256,0.14390265780197897,-0.12372424626017808,0.08115489048194768,0.1104479026169024,-0.21029263610667126,-0.18685824212951807,0.17850996882921213,0.06543853771517708,-0.19820857422192392,-0.006813581433255018,0.21429240156371157,0.017866206682409187,0.4061451334479448,-0.14405614173989925,-0.3026546476985117,0.19132318275727173,-0.17376745746266042,-0.06848186991035612,0.18502073771865432,0.08269028844068588,0.24379655659756516,-0.18626204362323495,0.10952475024115993,0.18841203878959556,0.06767243024837821,-0.13097265406079572,0.1536729524329009,0.233655334914869,-0.2055695541929542,0.08507235594226004,-0.16553446136980443,0.02058220147596039,-0.17908665398840362,0.23217913387146966,0.19365686945964428,0.1710633802172848,-0.15878328981373524,0.24854159998376202,-0.007458619556931189,0.312648886361612,0.40495362837108145,0.44137683655677573,0.16071259539039398,0.19103641643220182,0.24601293231883273,0.3703108573189773,0.32018039981568186,0.24027257409569805,0.23881271130852313,0.20948708601029414,0.012065155093146589,0.10399336543185177,-0.09373363656278344,0.15640432880178856,-0.20558818646943278,0.22854967128390924,0.07698412351904027,0.21323525637281385,0.14094443510655608,0.04538132451117614,-0.26389673548205256,0.0027398829578017102,0.037313196465032915,-0.0553267275957134,0.07464627081700095,0.02156107000445126,-0.38842098433318856,-0.8758372983923727,-0.37011021005007755,0.2908373701811862,0.4095731420729255,-0.33688809909808104,0.4113054207898987,0.5550020529880483,1.3910991202931273,0.9919330927859155,0.5913898563126249,0.3257173245552416,0.3739922531984661,-0.059821147723234186,-0.24284856770444585,-0.19117692527568475,0.0932892939460861,-0.07474563887240127,0.20418482721721304,-0.17167900139776712,0.21390831808607114,-0.031608883910910844,0.0007870705114143747,0.07460444429032363,0.6506584897224277,0.3324024893449604,-0.22702455666421928,-0.8448104356612031,-1.039335935564496,-0.916276838565349,0.8493707008155786,0.5353040814486933,0.2659835039801921,-0.18106941298648996,0.9650167860069292,1.7655563732467616,3.358663126790634,2.76167490196164,1.3710078096307112,0.8451672526767079,0.1426218117574911,-0.32418714055891196,-0.2429114990269629,0.07139735868511088,0.05733168424167227,-0.1100879617684839,0.1410321040986543,0.009101917816784266,-0.11797161337365049,-0.00942844101715218,-0.46357648407411006,0.5042257710811614,-0.329212386202134,-0.8654432508002612,-0.9891258753020696,-0.1953993218223029,1.058144145438918,0.6448859604220573,2.110511647755747,1.1698987981809381,0.02466143894556559,-0.24137396945339779,2.108964040676122,4.700109143769395,3.921895553801257,2.5826258450393174,0.43354866163755973,-0.25800862067736857,-0.5587989652956331,-0.23573638225367494,-0.006864378242539439,0.08296923046888513,-0.023318601882475448,0.18218380507073284,-0.04174657179334868,-0.2664899744083177,-0.0803707358504153,-0.2590193569772089,-0.2179078450532454,-0.43394648279855924,-1.0109121324310713,-0.9326087411045295,-0.90039838145603,-0.9086475759546014,-0.1625412435434765,0.34726044410933926,2.2181025093431894,0.9656542369259582,0.7739882950876389,-0.5483747161216656,-0.22686911953165276,2.019459542012128,1.63219904229755,-1.178232526401375,-0.5720491558748566,-1.491737175280354,-1.4242951061366806,-0.719980820665263,-0.36068414729311477,-0.009359351981502763,-0.10442970122987584,-0.17983137864113186,0.23959815548272795,0.006194369704505527,-0.01270912661070534,-0.45691834838653117,-0.547706350002785,-2.420283538519857,-2.3850778942454474,-1.98140854323382,-0.60266086951965,-1.6142368803953904,-3.8810945919772526,-0.1823416286613304,1.384863709701488,0.468799296871753,-0.5095089774985812,-1.7085426758279216,-1.095303909123774,0.013814247375385193,-1.9129440123252242,-2.531289249254709,-1.850725789340288,-1.8937195370596922,-1.0845605914738172,-1.105847485158835,-0.24749591860452552,0.052864164590396556,0.04950318071641049,0.03172035306488363,-0.12339613408669935,0.09422584830325235,-0.21724970635899934,-0.9434947953760389,-1.0899484986774073,-2.5717738125691962,-3.039388223444311,-1.5994262148056086,-1.135295313837921,-2.6649412420766136,-3.0293428354141403,-0.4684805580923853,-0.365766387879653,-1.5154526573035927,-3.1722320079198214,-2.8329234982691136,-2.7041158121740607,-1.2522178374397195,-3.0531512645838244,-2.837922535764624,-2.9262582410500837,-2.345972208021217,-1.488934338481431,-0.5697901997575288,-0.17954275847499238,-0.12927936215247135,-0.1914123782191781,-0.08716200210736191,0.053648928060692845,-0.010351735139531408,-1.33033880835008,-1.5665587343079874,-1.697991537390413,-2.775166570152636,-2.805389838638619,-1.422703986995498,-1.5069031544444345,-2.086721454014121,-1.8884492646504714,-1.7114372482405054,-2.829151438772875,-4.183079785117036,-4.039148765899093,-0.44434536990033235,-0.9364930333908065,-1.7204295160304954,-1.4724600244638195,-3.3409229420946867,-2.475240199065804,-1.1085947214678689,-0.7182030391323988,-0.4932470699992869,-0.36853749707416655,-0.0730976869606267,0.1484195430239953,-0.09983068689064145,0.08328527187750827,-0.1377109695529472,-1.5718655925807903,-1.3672755097456721,-0.6452141879412557,-1.078651735107785,-0.8089025758868987,-1.3327476764009571,-2.7343596215191046,-0.33928069320662857,2.3687763401180084,0.6977340808252119,-0.5069645342223593,-2.6777145952771604,-1.5393426852946532,-1.0212267322686441,-2.1624014979738218,-4.191449501592212,-1.6387854686101442,-3.662244261518479,-1.9922299549322582,0.12973028095027092,0.152154015730593,0.15002330994547683,-0.6298849009992912,0.1499650475099479,0.1570893003254458,0.015067252807576259,-0.22069395374797846,-0.1072086791488024,-0.7553809885604129,0.05023237245950397,1.3549139313561802,0.5653377534490541,-0.21723203686273065,-1.3953440080231831,0.10561613156972331,1.6085220844446655,2.1507038417424944,-0.28123987321156985,-0.6318410491382453,-2.338498887478287,-0.7757455772927013,-0.10694948998529616,-2.5088122849258245,-6.526648525062874,-4.1799146489433525,-3.7031482446161017,-1.9911702140700958,1.9764405061933152,1.7207846626983956,0.8218236714243734,-0.4280002277715541,0.16240636845461018,0.24400146026124162,-0.182546005311772,-0.043584312763291624,-0.1607854256542462,-0.10972405898265129,-0.022974662276163252,0.8760877842432311,1.2794844794571585,1.6671629658320442,-0.5253804885370564,1.0686535748200023,1.901635957149124,1.5674008568389202,-0.3639881201438954,-1.6768810449158384,-2.66815333826317,-0.31429451692714744,-0.5248800306142104,-4.286737662631914,-6.735908381494022,-3.3437590966671857,-3.4745313626852625,-0.890945018807204,1.8511543084115192,1.9518514420691326,0.8312266456263304,0.05012835758262392,0.2775896937653642,-0.2140457005144061,-0.20816368536426721,0.1594751804301492,-0.10599088416422789,0.2300914101865952,0.3773748750197404,1.7168632596365287,1.7677294559545982,2.89565810792294,1.8848975392067275,2.4360580089345243,4.275864357165678,1.998398666126536,0.5872060389750128,-1.1667068585504647,-0.6721406108284825,-1.6491483564055078,-0.8846924577207098,-2.289561762498324,-1.3996708558419693,-0.5402204303049499,-2.283125202204676,-0.03893361270703456,2.3799159283734843,2.621864087128045,0.976927410280625,0.21528255875474137,-0.039726358625035596,-0.08829311171724859,0.2250472366793918,-0.0017385842134489621,-0.2605357502121436,0.3316821923295786,-0.06273560839060796,1.483843066718629,3.336452978897533,5.548308281003372,6.167347047650473,6.497995389907,5.148389801936194,3.4190904966463203,2.021968010683389,0.6072867426581356,-1.3792687282467115,-2.247142337430137,-2.948227179396765,-1.926092456902056,-0.7009232801348438,-0.11214227198059781,-1.0100931214752615,-0.458283560346366,2.2267374505516213,2.52665728029299,0.82742824865345,0.07795937471760102,-0.10975554503266508,-0.23057913186150764,-0.07543458474249654,0.17498441111996332,-0.09412563275612028,0.3280424334803238,0.1648100932932471,0.7537652043077859,3.5198111054957613,7.152187121701815,8.695642010008012,8.54549173680353,7.1859576124478854,4.214985687191342,3.5101991978789755,0.9479286937446063,-0.8000250439559669,-3.152287619033647,-3.8865364725334044,-3.6175006118473925,-1.6020255200660047,-0.43574439703679985,-1.1780731906982802,-0.9742079360065009,1.3215550970605305,1.8799683570381127,0.9871676880886776,0.1428294214317626,0.016994577122911917,0.24054018040668493,-0.13186521862953082,0.2208041041209352,-0.3707872817090936,0.1980869835938986,-0.0051386812503887965,0.5641430264676974,2.217897028244182,4.490454988001752,6.73930073158595,8.561347132237417,8.300831757677186,7.122912836215256,4.763411293601128,3.8106714440266725,0.5041030661973007,-2.483335920796826,-2.506903362776985,-1.9371493555103143,0.5218660409887182,0.9988990119243548,0.8143259031351034,-0.00997349894366355,0.9829069446587384,1.0503166860430897,1.2842510394886937,0.9132349627702147,0.14003661593103614,0.07976568525818568,0.03916069988353599,-0.20792138545977962,-0.21485924664452533,-0.6332944537575512,-0.9388563280390566,0.7858808935218908,2.1278416855453592,2.1674623596058553,4.265631581183877,8.29519471719132,9.066683096906404,8.83631878040912,4.918701606037409,2.7996855440112296,0.508557655510594,-1.9696053398992832,-0.47302066358847117,-0.1447467363366112,3.45484893124238,1.904531109148013,1.2315374422574257,-0.16563148011491133,0.7664211433191784,1.229954095330401,1.9609167431523156,0.9321012060437619,0.248024804656744,0.13573137200913965,0.23304149454200632,0.1420301198329293,-0.5605742923924399,-1.0192918143748262,-0.8430967112151839,1.6133302831575649,2.177154081264182,2.211876223174578,5.881019472809663,9.39636969485612,10.225502969596553,9.193903015360126,5.25359873814267,1.594822936356957,0.03839708052319236,-1.4211796989264516,-1.8194984942213834,-1.377466686410413,2.5956438052821404,4.099517679455898,3.1386532672472893,1.0219633462036957,1.177594079966786,2.3597871048664727,2.1832221208810565,0.8329606168282779,-0.0876374651605886,-0.06483490287914628,0.012173738382102966,0.09209472526719392,-0.23733526675179656,-1.192271692731866,-1.1966357865295347,1.0308789569818495,2.319416570504111,2.9828096941393536,4.78329808524265,8.392349124004172,6.808547167452146,5.513471706625674,4.773182277892322,0.8451456733110726,-1.5602851327200025,-1.4717298225204012,-2.149158066653775,-0.45888118109319925,3.0649885142691113,5.843449065380309,3.8217073457230413,1.5741322626349865,1.2853031986103485,1.6562830560145931,1.778101081250253,0.8437484514243434,0.2530967052584623,0.23454068681136842,0.09243432046845501,-0.10421525397866623,-0.1967100991452008,-1.307154419673577,-1.6768509406817476,-0.2384061584673249,-0.11799696040012374,0.6090660146315838,1.6064302676208693,3.9305581118798187,2.3708545303535846,1.6957131202760534,2.528172463523931,0.34484794516707973,0.06893739028333327,0.17363792494710092,-0.7931355001400953,0.30534084062935674,3.0275792678635995,3.6343692657891613,3.424443750387605,2.059527551317579,1.9417068363338754,0.2557772425279004,1.0934256193172824,0.7697577300902573,0.4049945153885911,0.09917330372247157,-0.24278777693593212,-0.07229072175052223,0.17982786247105606,-0.21227434231733258,-0.17280423276617649,-0.35580485653627913,-1.293201707228377,-1.9873513921158594,-2.785345746981209,-0.5821943028485155,-0.023041864701196506,1.1185138101824128,-0.48551534973936805,0.19410337204307804,-0.6388501523439333,-1.6874101392520555,-2.723719076606478,0.22337260493908473,0.9416598159570939,2.596020433305629,3.039537866812165,2.136477435345252,1.3280655832779107,0.6212074820791231,1.0184251111281402,0.10626131876798481,0.2863063674412236,-0.0009579739207234983,0.22050627819867497,0.13155295238096604,-0.014420008388283768,0.14597988363997844,-0.2486992657169485,-0.04432725937900556,-0.3842972128431718,-3.20584962719834,-4.568690083794848,-4.156136064620052,-1.7469538549748849,-0.5014937289761401,-2.37539053272693,-3.658445765723489,-4.446183171421546,-3.131581867638684,-2.052012420282237,-1.760263741031461,0.2284769612362962,1.7058559395171744,2.3406073281695154,1.0222659716538656,1.1420731413471992,0.49992023646440575,0.8685958313524941,0.323842431100944,0.19623655928397568,0.2107578441557041,-0.014277014195948845,-0.009592300209862792,-0.008140543186958461,-0.14535369850981303,-0.37931740000924763,-0.5658536868413133,-1.1654876855059675,-2.6857935686306145,-1.3842818105111656,-2.7944229357145174,-4.731464506161469,-4.950965345952096,-7.267430195627865,-4.911209365758173,-4.896878242918374,-2.3982673664824237,-1.3678517808735648,-1.3206516036935345,1.1336740221911124,1.7619665893567507,1.3416526053458557,0.7005800478977352,0.9451248075557579,0.19980910443549235,0.09811906611764983,-0.06690193885039027,0.025256383817260475,0.03788281565444629,-0.0026656096493110626,0.20314985647999717,-0.16466798135348212,-0.17490102598425575,-0.36108344531006153,-1.1436717921403339,-1.890753313130572,-2.3175760217828034,-2.0502219271683573,-2.362098450068525,-1.7024102577122626,-1.7311421174770438,-3.399736050523605,-3.251915409785298,-2.4234794382813845,-0.5160063435116761,-0.652968903845974,-2.183657478482905,0.03185244671128791,1.5141248813156205,1.7753281833382597,1.6277751938468532,1.071923727163314,0.42970934856742427,0.13399994366381504,-0.08212285650090925,-0.15179027278747698,0.1692675761151573,-0.13372082276093789,-0.18267263114648147,0.012542463747827193,0.07373249608670517,-0.31573386532689857,-0.1153813007329692,-0.5130394389329759,-1.5689531644526165,-1.9357662715838173,-2.08302680565471,-1.5542596560691797,-2.381939837478046,-3.9371118645083913,-2.2491706197919754,-1.2293074027461337,-1.7909940972450433,-1.9302464481781334,-2.3632922722001135,-0.9917523455058725,0.2719567968973627,0.5526101837952333,0.8630738074372708,1.3209021013554338,0.24483669862481458,0.2987699384840077,-0.1031132374649513,-0.14893462583293587,-0.20193586496527738,0.03817133434898501,0.009668651942668305,-0.18456529291065993,-0.004586253596519589,-0.1707367214849511,0.031568837598155645,-0.39405820324347185,-0.5210742325181523,-0.8267905331503509,-0.06565623975975791,0.05923289180706673,-1.4380906340868398,-1.3961817108619856,-1.1734968323380621,-1.643796398145655,-1.219691811299963,-1.230939957186554,-0.7500144641360597,-0.9170956151326406,0.009090202697775815,-0.09611973962947931,0.03367585244699342,0.16875770614129984,-0.1391496698020155,0.17949736868563493,-0.07038986230075961,-0.20695885501121825,-0.07127087784565644,0.10191589445949534,0.030374847382570902,0.10959413734940338,-0.1881177927726354,-0.0038435939067069697,-0.1935662809757337,0.02701292315545615,0.1532325414810467,0.23338046627258963,-0.20704982530734956,0.11830734672523095,0.20101210817489248,-0.03081968540655873,0.1749295588193133,0.01626623569402466,-0.1422693643398645,-0.17351904024225587,0.1615523548578331,0.13748454456154846,0.15709481563806799,0.05079453647879182,-0.038094190194640803,0.2736385869517018,-0.19222236717988903,0.24342185625578106,0.009917163328570844,0.06479095495745069,-0.10761121361369574],[-0.17107517979113107,0.04595172196531283,-0.0665876339132564,0.16521532064665645,-0.07809312234595178,-0.089239485827184,-0.1347942834916961,0.08766733210496369,-0.06987531246749035,-0.024623899778868807,-0.006396750944341889,-0.024446160381434878,0.015662046097100757,-0.21367234506133415,0.022654775766993707,0.1763689078631352,-0.15415082108721834,-0.03894796797127886,0.08637267005269933,0.006524340105224069,0.1394037548906053,0.22797475398873246,-0.12149462425658586,-0.1645701157838102,0.09156976746821988,0.024931254240769807,-0.10051742599798374,-0.1752266944349714,-0.2095732990540622,-0.12608426493934277,0.16212808917161314,0.003019358489976365,0.2018105728312798,-0.08538547496892757,0.1827675361491874,-0.14421959222504344,0.046170621201513495,0.06595343378008398,0.16233340296322057,0.015492109753900914,0.055203345394690455,-0.14449307396365854,-0.21594529237263407,-0.21422090795903886,-0.06576570176943929,0.1797560228203927,0.22357051410114231,0.08480018798616344,-0.12856295656354946,0.23279484418774976,0.0073459918772945665,-0.22331610476657826,-0.06411285296096403,-0.05487899822416731,-0.0029907071271920715,-0.1076178351716216,-0.23650537792986248,0.10625409903183047,-0.01888836760718804,0.16283959602649511,-0.2124052815595603,-0.019116180404878724,-0.07652307127222499,-0.021349229858796854,-0.03905478111342558,0.15134053841749345,-0.027410800007321857,-0.07125722223483388,0.07178944002555,0.015806848958873836,-0.2375268057330495,0.030464444425419845,-0.008391197096864825,0.04082803597172123,0.05404860016285321,-0.040423655692865317,-0.05341567220253097,0.05778773546987397,-0.006568365757254292,0.19994357963647122,-0.2099668648210511,-0.1509327440003947,0.13582234906548574,-0.1325848225534526,-0.04910888539225178,-0.16557601420268786,0.06363677546910995,-0.23529502466198748,-0.08335483394214518,-0.012401845625498675,-0.13247624747954884,0.06348854101675926,0.06809852384703274,-0.1056594396774648,-0.03337802767127428,0.07013543497428393,0.26922778559635885,-0.10888546538490411,-0.04566158728081948,-0.14886838960525256,-0.19877511396302577,-0.19219386343105843,0.27429413902644,-0.11400874173196479,0.09228868829765137,-0.19343569704596375,-0.06084397989260272,0.04663781201995097,0.11166280176376259,0.019575766963023666,0.17586022083216968,0.031102888259777695,0.12259912005133133,0.12910073697331792,-0.033499549645620776,-0.20589503283284621,0.21085446063129143,0.02366723056184683,0.14304773869498866,-0.09468067281322834,-0.020477135768543982,-0.026140143802648248,-0.09554705530730902,0.003829731865008429,-0.1895477168061366,-0.11350696535764404,-0.18215634602869424,0.02838912420810323,-0.07389792676962795,-0.046749899525897205,0.26141738543712184,-0.021114236270642173,-0.21683530229727324,0.0855546407022962,-0.13466199965900222,0.08730115075998282,0.08118619300094922,0.17004159778211062,0.11569385300803392,0.10170506503006627,-0.09374878574569867,0.13572908226045866,-0.12484762568428602,-0.2426859869471225,-0.243354756896861,-0.19683433911971596,-0.25415876443244456,0.07346740150389812,-0.030369602218343596,0.09694677118326332,-0.29875759162240595,-0.22031962948119777,0.18731171858077367,0.025425269316358592,0.08527866694553397,0.16576860727155718,-0.019737678815282225,0.12829312863314052,0.173807425364469,0.2361644637818634,0.036904385199991445,-0.134174523801422,-0.14762355348934458,0.10090188369498145,0.24349290966147644,-0.12254903683843812,0.11679782148212804,-0.03997016371019724,0.0424966974020633,-0.003973632181031972,0.14148277795788974,-0.22978966259193753,0.06360188619007748,0.11407156054253391,0.08202006834448791,-0.18021737588012693,0.20102100123198086,-0.07760994901963271,0.3220357482787684,0.21554080915901697,-0.012598457828100755,-0.07829970540652902,0.22092320273912902,0.08412150246985152,0.1750140762430354,0.13403208966873448,0.21636756591017328,0.14546819840958003,-0.10443491732489997,-0.04218223992962002,-0.09421916734091394,0.08194574654033264,0.07557772029544504,0.1671256934562248,-0.11440990255590958,-0.18836638264298788,0.2390537635664577,0.17927195088376968,-0.17739695205152597,0.045945827965399005,0.2166685435312729,-0.038358915381225475,-0.020904915739082007,0.1010861279334071,0.10690936964337394,0.23786244745868895,-0.11327825101626035,-0.011326813191324905,0.05969364989278806,0.35127329068613633,0.14843793639407238,-0.048440717533076216,0.2752213533443832,0.34109241414860786,0.02571602334532959,0.3036617052791518,0.06579555955465768,-0.06543600056541296,0.06665951446316673,0.13251968853085466,0.05872850057138071,0.211209696973057,0.1682070985028962,-0.1390809939434322,0.22232316426231358,-0.22651083882479356,-0.1895980099662394,-0.09546665640767948,0.16570134665262806,0.16561882025406588,0.048547309203676815,-0.06641782113803957,0.3271169358885146,0.20991013254661486,0.22592149178304896,0.13962708357173104,0.6315562606415759,0.23796139744355282,0.4544506877373686,0.17193460603670968,-0.09322207094097482,0.06337043452457539,-0.05197968038858013,0.23582422309231427,0.3362361663169196,-0.05858367644626677,-0.10741825992056195,-0.08335435966030559,0.14929082232523752,0.24214473009445378,-0.2003010868472791,-0.16155691191615518,-0.04432109805201889,-0.24125133440335175,-0.17996244715811852,-0.015068584921758287,-0.01576722211829948,-0.0019198325896288163,0.12525005887608617,0.05073679685481022,0.2563735962387123,0.21866541160201217,0.22690368317088677,0.2747896070998752,0.6165313203285421,0.11803851352691488,0.09022635442445656,-0.08673585404867196,0.22298503626152638,-0.1423300298588625,0.2224225843332197,0.3551153952482566,-0.09166692287761309,-0.21976698260778157,-0.1821398375859091,0.2250266098030958,-0.08617279882163385,-0.1269766059842344,0.14439658687231013,0.12471164957309044,0.11032466922973128,0.21822487743019237,-0.14161778162448393,0.04751018953638481,0.2281393925654072,0.13666233969529878,-0.030470596991602684,-0.25465452236873626,0.14410457924516087,-0.026439378666974614,0.1611154123062956,0.4292725623840118,-0.057864620533518804,-0.04186797246722723,0.07851948921783469,0.24427764358555953,-0.1757550458768257,0.12075265320115937,-0.028107337278985612,0.2923097031426336,-0.1455380541582836,0.09839083186519984,-0.19104365759554434,0.03418887551850243,0.21680637898053817,0.152905191354671,0.16050917992832062,0.059144586594201076,-0.016070292415354737,0.011039481029338053,-0.16417871387811442,0.19356122457603325,0.04338417029272333,-0.010362055334333709,0.18252581368039583,-0.09585026564185019,0.037368173702799545,-0.027246426683950265,0.35726851526017894,0.009724380732759181,0.16658755708764034,-0.10303136684863859,0.044423023150055856,